{"learner":{"attributes":{"scikit_learn":"{\"_estimator_type\": \"regressor\"}"},"feature_names":[],"feature_types":[],"gradient_booster":{"model":{"gbtree_model_param":{"num_parallel_tree":"1","num_trees":"1000"},"iteration_indptr":[0,1,2,3,4,5,6,7,8,9,10,11,12,13,14,15,16,17,18,19,20,21,22,23,24,25,26,27,28,29,30,31,32,33,34,35,36,37,38,39,40,41,42,43,44,45,46,47,48,49,50,51,52,53,54,55,56,57,58,59,60,61,62,63,64,65,66,67,68,69,70,71,72,73,74,75,76,77,78,79,80,81,82,83,84,85,86,87,88,89,90,91,92,93,94,95,96,97,98,99,100,101,102,103,104,105,106,107,108,109,110,111,112,113,114,115,116,117,118,119,120,121,122,123,124,125,126,127,128,129,130,131,132,133,134,135,136,137,138,139,140,141,142,143,144,145,146,147,148,149,150,151,152,153,154,155,156,157,158,159,160,161,162,163,164,165,166,167,168,169,170,171,172,173,174,175,176,177,178,179,180,181,182,183,184,185,186,187,188,189,190,191,192,193,194,195,196,197,198,199,200,201,202,203,204,205,206,207,208,209,210,211,212,213,214,215,216,217,218,219,220,221,222,223,224,225,226,227,228,229,230,231,232,233,234,235,236,237,238,239,240,241,242,243,244,245,246,247,248,249,250,251,252,253,254,255,256,257,258,259,260,261,262,263,264,265,266,267,268,269,270,271,272,273,274,275,276,277,278,279,280,281,282,283,284,285,286,287,288,289,290,291,292,293,294,295,296,297,298,299,300,301,302,303,304,305,306,307,308,309,310,311,312,313,314,315,316,317,318,319,320,321,322,323,324,325,326,327,328,329,330,331,332,333,334,335,336,337,338,339,340,341,342,343,344,345,346,347,348,349,350,351,352,353,354,355,356,357,358,359,360,361,362,363,364,365,366,367,368,369,370,371,372,373,374,375,376,377,378,379,380,381,382,383,384,385,386,387,388,389,390,391,392,393,394,395,396,397,398,399,400,401,402,403,404,405,406,407,408,409,410,411,412,413,414,415,416,417,418,419,420,421,422,423,424,425,426,427,428,429,430,431,432,433,434,435,436,437,438,439,440,441,442,443,444,445,446,447,448,449,450,451,452,453,454,455,456,457,458,459,460,461,462,463,464,465,466,467,468,469,470,471,472,473,474,475,476,477,478,479,480,481,482,483,484,485,486,487,488,489,490,491,492,493,494,495,496,497,498,499,500,501,502,503,504,505,506,507,508,509,510,511,512,513,514,515,516,517,518,519,520,521,522,523,524,525,526,527,528,529,530,531,532,533,534,535,536,537,538,539,540,541,542,543,544,545,546,547,548,549,550,551,552,553,554,555,556,557,558,559,560,561,562,563,564,565,566,567,568,569,570,571,572,573,574,575,576,577,578,579,580,581,582,583,584,585,586,587,588,589,590,591,592,593,594,595,596,597,598,599,600,601,602,603,604,605,606,607,608,609,610,611,612,613,614,615,616,617,618,619,620,621,622,623,624,625,626,627,628,629,630,631,632,633,634,635,636,637,638,639,640,641,642,643,644,645,646,647,648,649,650,651,652,653,654,655,656,657,658,659,660,661,662,663,664,665,666,667,668,669,670,671,672,673,674,675,676,677,678,679,680,681,682,683,684,685,686,687,688,689,690,691,692,693,694,695,696,697,698,699,700,701,702,703,704,705,706,707,708,709,710,711,712,713,714,715,716,717,718,719,720,721,722,723,724,725,726,727,728,729,730,731,732,733,734,735,736,737,738,739,740,741,742,743,744,745,746,747,748,749,750,751,752,753,754,755,756,757,758,759,760,761,762,763,764,765,766,767,768,769,770,771,772,773,774,775,776,777,778,779,780,781,782,783,784,785,786,787,788,789,790,791,792,793,794,795,796,797,798,799,800,801,802,803,804,805,806,807,808,809,810,811,812,813,814,815,816,817,818,819,820,821,822,823,824,825,826,827,828,829,830,831,832,833,834,835,836,837,838,839,840,841,842,843,844,845,846,847,848,849,850,851,852,853,854,855,856,857,858,859,860,861,862,863,864,865,866,867,868,869,870,871,872,873,874,875,876,877,878,879,880,881,882,883,884,885,886,887,888,889,890,891,892,893,894,895,896,897,898,899,900,901,902,903,904,905,906,907,908,909,910,911,912,913,914,915,916,917,918,919,920,921,922,923,924,925,926,927,928,929,930,931,932,933,934,935,936,937,938,939,940,941,942,943,944,945,946,947,948,949,950,951,952,953,954,955,956,957,958,959,960,961,962,963,964,965,966,967,968,969,970,971,972,973,974,975,976,977,978,979,980,981,982,983,984,985,986,987,988,989,990,991,992,993,994,995,996,997,998,999,1000],"tree_info":[0,0,0,0,0,0,0,0,0,0,0,0,0,0,0,0,0,0,0,0,0,0,0,0,0,0,0,0,0,0,0,0,0,0,0,0,0,0,0,0,0,0,0,0,0,0,0,0,0,0,0,0,0,0,0,0,0,0,0,0,0,0,0,0,0,0,0,0,0,0,0,0,0,0,0,0,0,0,0,0,0,0,0,0,0,0,0,0,0,0,0,0,0,0,0,0,0,0,0,0,0,0,0,0,0,0,0,0,0,0,0,0,0,0,0,0,0,0,0,0,0,0,0,0,0,0,0,0,0,0,0,0,0,0,0,0,0,0,0,0,0,0,0,0,0,0,0,0,0,0,0,0,0,0,0,0,0,0,0,0,0,0,0,0,0,0,0,0,0,0,0,0,0,0,0,0,0,0,0,0,0,0,0,0,0,0,0,0,0,0,0,0,0,0,0,0,0,0,0,0,0,0,0,0,0,0,0,0,0,0,0,0,0,0,0,0,0,0,0,0,0,0,0,0,0,0,0,0,0,0,0,0,0,0,0,0,0,0,0,0,0,0,0,0,0,0,0,0,0,0,0,0,0,0,0,0,0,0,0,0,0,0,0,0,0,0,0,0,0,0,0,0,0,0,0,0,0,0,0,0,0,0,0,0,0,0,0,0,0,0,0,0,0,0,0,0,0,0,0,0,0,0,0,0,0,0,0,0,0,0,0,0,0,0,0,0,0,0,0,0,0,0,0,0,0,0,0,0,0,0,0,0,0,0,0,0,0,0,0,0,0,0,0,0,0,0,0,0,0,0,0,0,0,0,0,0,0,0,0,0,0,0,0,0,0,0,0,0,0,0,0,0,0,0,0,0,0,0,0,0,0,0,0,0,0,0,0,0,0,0,0,0,0,0,0,0,0,0,0,0,0,0,0,0,0,0,0,0,0,0,0,0,0,0,0,0,0,0,0,0,0,0,0,0,0,0,0,0,0,0,0,0,0,0,0,0,0,0,0,0,0,0,0,0,0,0,0,0,0,0,0,0,0,0,0,0,0,0,0,0,0,0,0,0,0,0,0,0,0,0,0,0,0,0,0,0,0,0,0,0,0,0,0,0,0,0,0,0,0,0,0,0,0,0,0,0,0,0,0,0,0,0,0,0,0,0,0,0,0,0,0,0,0,0,0,0,0,0,0,0,0,0,0,0,0,0,0,0,0,0,0,0,0,0,0,0,0,0,0,0,0,0,0,0,0,0,0,0,0,0,0,0,0,0,0,0,0,0,0,0,0,0,0,0,0,0,0,0,0,0,0,0,0,0,0,0,0,0,0,0,0,0,0,0,0,0,0,0,0,0,0,0,0,0,0,0,0,0,0,0,0,0,0,0,0,0,0,0,0,0,0,0,0,0,0,0,0,0,0,0,0,0,0,0,0,0,0,0,0,0,0,0,0,0,0,0,0,0,0,0,0,0,0,0,0,0,0,0,0,0,0,0,0,0,0,0,0,0,0,0,0,0,0,0,0,0,0,0,0,0,0,0,0,0,0,0,0,0,0,0,0,0,0,0,0,0,0,0,0,0,0,0,0,0,0,0,0,0,0,0,0,0,0,0,0,0,0,0,0,0,0,0,0,0,0,0,0,0,0,0,0,0,0,0,0,0,0,0,0,0,0,0,0,0,0,0,0,0,0,0,0,0,0,0,0,0,0,0,0,0,0,0,0,0,0,0,0,0,0,0,0,0,0,0,0,0,0,0,0,0,0,0,0,0,0,0,0,0,0,0,0,0,0,0,0,0,0,0,0,0,0,0,0,0,0,0,0,0,0,0,0,0,0,0,0,0,0,0,0,0,0,0,0,0,0,0,0,0,0,0,0,0,0,0,0,0,0,0,0,0,0,0,0,0,0,0,0,0,0,0,0,0,0,0,0,0,0,0,0,0,0,0,0,0,0,0,0,0,0,0,0,0,0,0,0,0,0,0,0,0,0,0,0,0,0,0,0,0,0,0,0,0,0,0,0,0,0,0,0,0,0,0,0,0,0,0,0,0,0,0,0,0,0,0,0,0,0,0,0,0,0,0,0,0,0,0,0,0,0,0,0,0,0,0,0,0,0,0,0,0,0,0,0,0,0,0,0,0,0,0,0,0,0,0,0,0,0,0,0,0,0,0,0,0,0,0,0,0,0,0,0,0,0,0,0,0,0,0,0,0,0,0,0,0,0,0,0,0,0,0,0,0,0,0,0,0,0,0,0,0,0,0,0,0,0,0,0,0,0,0],"trees":[{"base_weights":[3.1187922E1,-5.642026E3,1.0420459E4,-7.949649E2,-6.442886E3,5.8295127E3,1.3152374E4,-1.6771655E3,1.1738292E3,-4.7956855E3,-6.6186646E1,4.1142163E3,7.4426387E3,1.1520222E4,1.5582144E2,-6.8641345E2,-2.3456997E3,1.3222424E3,-2.0867678E1,-4.8632993E3,-6.503455E0,4.3807593E3,1.8413472E3,7.47818E3,1.2334047E1,1.1655137E4,5.493088E3,1.5823303E3,-8.953802E2,-2.6508757E3,-1.758883E3,4.0221445E2,1.8733091E3,-4.2884205E1,-5.478084E1,3.808675E3,5.5766074E3,-5.625433E2,2.2249417E3,7.506047E1,1.8023794E1,1.2238684E4,1.0419922E4,1.5616884E1,5.831618E1,1.9747686E1,6.288574E-2,-1.0444672E1,1.1175084E1,-2.6765957E1,-6.952964E0,6.28292E0,-1.8628645E1,-1.6445753E1,7.9146166E0,1.2492529E1,2.6637041E1,3.9336636E1,2.942398E0,5.9498806E1,-6.371182E0,3.01177E0,-1.1449919E1,3.339695E1,9.714147E0,1.0667822E2,1.2922125E2,2.3303617E1,1.0481848E2],"categories":[],"categories_nodes":[],"categories_segments":[],"categories_sizes":[],"default_left":[0,0,0,0,0,0,0,0,0,0,0,0,0,0,0,0,0,0,0,0,0,0,0,0,0,0,0,0,0,0,0,0,0,0,0,0,0,0,0,0,0,0,0,0,0,0,0,0,0,0,0,0,0,0,0,0,0,0,0,0,0,0,0,0,0,0,0,0,0],"id":0,"left_children":[1,3,5,7,9,11,13,15,17,19,-1,21,23,25,-1,27,29,31,-1,33,-1,35,37,39,-1,41,43,45,47,49,51,53,55,-1,-1,57,59,61,63,-1,-1,65,67,-1,-1,-1,-1,-1,-1,-1,-1,-1,-1,-1,-1,-1,-1,-1,-1,-1,-1,-1,-1,-1,-1,-1,-1,-1,-1],"loss_changes":[1.22655154E11,5.219807E9,9.141748E9,3.3544803E8,3.026862E8,7.330683E8,1.6447406E9,8.648266E7,3.1794136E7,2.9069312E7,0E0,7.432474E7,2.1893632E7,1.6284877E8,0E0,2.7491852E7,9.484896E6,2.8652344E7,0E0,1.6444928E7,0E0,6.1539584E7,1.6005532E7,8.6144E6,0E0,6.853427E7,1.540016E6,3.080077E6,1.6472068E7,6.53888E5,8.617096E6,1.9625886E7,1.4429392E7,0E0,0E0,3.6180096E7,8.960947E7,1.8540635E6,1.6319E7,0E0,0E0,5.432115E7,2.2664192E7,0E0,0E0,0E0,0E0,0E0,0E0,0E0,0E0,0E0,0E0,0E0,0E0,0E0,0E0,0E0,0E0,0E0,0E0,0E0,0E0,0E0,0E0,0E0,0E0,0E0,0E0],"parents":[2147483647,0,0,1,1,2,2,3,3,4,4,5,5,6,6,7,7,8,8,9,9,11,11,12,12,13,13,15,15,16,16,17,17,19,19,21,21,22,22,23,23,25,25,26,26,27,27,28,28,29,29,30,30,31,31,32,32,35,35,36,36,37,37,38,38,41,41,42,42],"right_children":[2,4,6,8,10,12,14,16,18,20,-1,22,24,26,-1,28,30,32,-1,34,-1,36,38,40,-1,42,44,46,48,50,52,54,56,-1,-1,58,60,62,64,-1,-1,66,68,-1,-1,-1,-1,-1,-1,-1,-1,-1,-1,-1,-1,-1,-1,-1,-1,-1,-1,-1,-1,-1,-1,-1,-1,-1,-1],"split_conditions":[6.820709E2,3.309536E1,1.0710115E3,5.378796E2,5.5325428E1,8.4128046E2,1.1920996E3,1.3275106E1,6.289602E2,8.297439E1,-6.6186646E1,6.9475464E1,7.00282E1,5.976934E1,1.5582144E2,4.798641E0,3.2107278E2,5.7243036E2,-2.0867678E1,5.005385E1,-6.503455E0,6.510622E2,7.129428E1,9.3496246E2,1.2334047E1,3.9624725E1,1.106344E3,4.002259E2,1.4571111E1,3.647859E1,3.5936868E2,5.7691166E1,5.543612E1,-4.2884205E1,-5.478084E1,7.151716E2,7.7473456E2,6.509814E2,6.7416885E1,7.506047E1,1.8023794E1,1.1695421E3,1.0671641E3,1.5616884E1,5.831618E1,1.9747686E1,6.288574E-2,-1.0444672E1,1.1175084E1,-2.6765957E1,-6.952964E0,6.28292E0,-1.8628645E1,-1.6445753E1,7.9146166E0,1.2492529E1,2.6637041E1,3.9336636E1,2.942398E0,5.9498806E1,-6.371182E0,3.01177E0,-1.1449919E1,3.339695E1,9.714147E0,1.0667822E2,1.2922125E2,2.3303617E1,1.0481848E2],"split_indices":[45,8,19,46,36,61,9,36,2,52,0,32,32,52,0,57,0,46,0,31,0,9,32,9,0,32,0,0,6,31,2,32,52,0,0,11,23,0,52,0,0,0,0,0,0,0,0,0,0,0,0,0,0,0,0,0,0,0,0,0,0,0,0,0,0,0,0,0,0],"split_type":[0,0,0,0,0,0,0,0,0,0,0,0,0,0,0,0,0,0,0,0,0,0,0,0,0,0,0,0,0,0,0,0,0,0,0,0,0,0,0,0,0,0,0,0,0,0,0,0,0,0,0,0,0,0,0,0,0,0,0,0,0,0,0,0,0,0,0,0,0],"sum_hessian":[2.079E3,1.345E3,7.34E2,1.91E2,1.154E3,2.75E2,4.59E2,1.32E2,5.9E1,1.14E2,1.04E3,1.35E2,1.4E2,2.78E2,1.81E2,5.4E1,7.8E1,5.7E1,2E0,1.12E2,2E0,1.2E2,1.5E1,1.39E2,1E0,2.71E2,7E0,4E0,5E1,4.9E1,2.9E1,2.2E1,3.5E1,6.2E1,5E1,8.4E1,3.6E1,2E0,1.3E1,1.38E2,1E0,1.78E2,9.3E1,1E0,6E0,3E0,1E0,4.7E1,3E0,4.8E1,1E0,1E0,2.8E1,3E0,1.9E1,2.1E1,1.4E1,8.1E1,3E0,3.4E1,2E0,1E0,1E0,6E0,7E0,5.9E1,1.19E2,1E0,9.2E1],"tree_param":{"num_deleted":"0","num_feature":"64","num_nodes":"69","size_leaf_vector":"1"}},{"base_weights":[-7.712633E0,-5.493519E3,1.03239E4,-7.25362E2,-6.3764946E3,5.5410234E3,1.3147507E4,-2.308051E3,5.204557E2,-4.605103E3,-6.51975E1,3.6937766E3,7.071966E3,1.1603717E4,1.5737387E4,1.8537736E3,-2.418675E3,-2.0641693E2,1.7364971E3,-4.647605E3,-4.3245945E0,3.0646313E3,4.730174E3,7.222895E3,1.371187E1,1.1666829E4,1.7401715E3,1.5907944E2,9.590766E1,2.3649841E1,4.1567626E0,-2.7490322E1,-1.8768774E3,1.779746E3,-3.1242014E2,1.9398848E3,-8.331985E2,-4.6710804E1,-1.3026213E1,3.2494824E3,-3.5803238E2,5.22812E3,1.2801613E3,7.297316E1,1.3422745E3,1.0340924E4,1.2285591E4,2.0633593E0,2.4039213E1,-1.2513881E1,-2.0853586E1,1.3056396E-1,2.3642902E1,-6.684486E0,3.9789245E0,9.823375E0,2.850654E1,-1.9194784E1,1.2128205E1,3.4536602E1,2.9179451E0,1.998033E1,-1.4465569E1,5.656158E1,2.4633518E1,-2.076629E0,3.333148E1,-9.572283E0,2.97064E1,1.0431323E2,4.0313072E1,1.4447253E2,1.16643486E2],"categories":[],"categories_nodes":[],"categories_segments":[],"categories_sizes":[],"default_left":[0,0,0,0,0,0,0,0,0,0,0,0,0,0,0,0,0,0,0,0,0,0,0,0,0,0,0,0,0,0,0,0,0,0,0,0,0,0,0,0,0,0,0,0,0,0,0,0,0,0,0,0,0,0,0,0,0,0,0,0,0,0,0,0,0,0,0,0,0,0,0,0,0],"id":1,"left_children":[1,3,5,7,9,11,13,15,17,19,-1,21,23,25,27,29,31,33,35,37,-1,39,41,43,-1,45,47,-1,-1,-1,-1,-1,49,51,53,55,57,-1,-1,59,61,63,65,-1,67,69,71,-1,-1,-1,-1,-1,-1,-1,-1,-1,-1,-1,-1,-1,-1,-1,-1,-1,-1,-1,-1,-1,-1,-1,-1,-1,-1],"loss_changes":[1.1766197E11,5.70436E9,9.650733E9,4.2118227E8,2.6027622E8,7.346166E8,1.6245801E9,4.776109E7,1.0642731E8,1.3773952E7,0E0,6.635725E7,1.1571661E8,1.5835546E8,2.1454848E7,1.222444E6,1.13072E7,1.6557042E7,2.5135312E7,8.256E5,0E0,5.177805E7,7.061376E7,5.2350464E7,0E0,1.0677862E8,2.558234E6,0E0,0E0,0E0,0E0,0E0,2.34572E6,4.099965E6,1.872705E7,3.382808E7,1.1218179E7,0E0,0E0,4.4888256E7,1.5713444E7,3.2220416E7,2.2073552E7,0E0,1.4076875E7,1.3275136E7,8.529306E7,0E0,0E0,0E0,0E0,0E0,0E0,0E0,0E0,0E0,0E0,0E0,0E0,0E0,0E0,0E0,0E0,0E0,0E0,0E0,0E0,0E0,0E0,0E0,0E0,0E0,0E0],"parents":[2147483647,0,0,1,1,2,2,3,3,4,4,5,5,6,6,7,7,8,8,9,9,11,11,12,12,13,13,14,14,15,15,16,16,17,17,18,18,19,19,21,21,22,22,23,23,25,25,26,26,32,32,33,33,34,34,35,35,36,36,39,39,40,40,41,41,42,42,44,44,45,45,46,46],"right_children":[2,4,6,8,10,12,14,16,18,20,-1,22,24,26,28,30,32,34,36,38,-1,40,42,44,-1,46,48,-1,-1,-1,-1,-1,50,52,54,56,58,-1,-1,60,62,64,66,-1,68,70,72,-1,-1,-1,-1,-1,-1,-1,-1,-1,-1,-1,-1,-1,-1,-1,-1,-1,-1,-1,-1,-1,-1,-1,-1,-1,-1],"split_conditions":[5.9030054E2,3.35348E1,1.0491189E3,3.2740942E2,6.1306007E1,7.76739E2,1.3144084E3,1.4195294E0,5.393728E2,8.297439E1,-6.51975E1,8.189009E2,6.036901E1,1.3565847E3,5.2973E1,3.4862845E2,3.6216006E2,3.338284E2,6.86878E1,2.6028214E2,-4.3245945E0,6.2748157E2,8.0166266E2,9.897725E2,1.371187E1,1.1097601E3,1.449286E3,1.5907944E2,9.590766E1,2.3649841E1,4.1567626E0,-2.7490322E1,3.2860944E2,3.55819E2,5.378796E2,5.3503387E1,5.824812E2,-4.6710804E1,-1.3026213E1,6.554863E1,7.2750586E2,5.976934E1,7.5663196E2,7.297316E1,9.2534454E2,5.865202E1,3.4976723E1,2.0633593E0,2.4039213E1,-1.2513881E1,-2.0853586E1,1.3056396E-1,2.3642902E1,-6.684486E0,3.9789245E0,9.823375E0,2.850654E1,-1.9194784E1,1.2128205E1,3.4536602E1,2.9179451E0,1.998033E1,-1.4465569E1,5.656158E1,2.4633518E1,-2.076629E0,3.333148E1,-9.572283E0,2.97064E1,1.0431323E2,4.0313072E1,1.4447253E2,1.16643486E2],"split_indices":[19,36,0,5,24,11,11,37,2,52,0,46,52,0,52,2,46,11,52,0,0,9,19,23,0,51,2,0,0,0,0,0,0,0,46,52,0,0,0,52,19,52,5,0,9,52,52,0,0,0,0,0,0,0,0,0,0,0,0,0,0,0,0,0,0,0,0,0,0,0,0,0,0],"split_type":[0,0,0,0,0,0,0,0,0,0,0,0,0,0,0,0,0,0,0,0,0,0,0,0,0,0,0,0,0,0,0,0,0,0,0,0,0,0,0,0,0,0,0,0,0,0,0,0,0,0,0,0,0,0,0,0,0,0,0,0,0,0,0,0,0,0,0,0,0,0,0,0,0],"sum_hessian":[2.074E3,1.355E3,7.19E2,2.12E2,1.143E3,2.68E2,4.51E2,9.3E1,1.19E2,8.8E1,1.055E3,1.23E2,1.45E2,2.86E2,1.65E2,2E0,9.1E1,7.5E1,4.4E1,8.7E1,1E0,7.9E1,4.4E1,1.41E2,4E0,2.84E2,2E0,1.59E2,6E0,1E0,1E0,5.4E1,3.7E1,3E0,7.2E1,4.1E1,3E0,8.6E1,1E0,7.5E1,4E0,3.8E1,6E0,1.39E2,2E0,9.6E1,1.88E2,1E0,1E0,1.1E1,2.6E1,1E0,2E0,4.8E1,2.4E1,2.1E1,2E1,2E0,1E0,7E1,5E0,1E0,3E0,3.2E1,6E0,4E0,2E0,1E0,1E0,9.4E1,2E0,3.7E1,1.51E2],"tree_param":{"num_deleted":"0","num_feature":"64","num_nodes":"73","size_leaf_vector":"1"}},{"base_weights":[-2.2194316E0,-5.545505E3,1.012097E4,-8.2204443E2,-6.3168066E3,5.681104E3,1.2853474E4,2.5861337E2,-2.33551E3,-4.7554385E3,-6.4876785E1,3.731612E3,6.8791387E3,1.1149893E4,1.5237145E4,-2.3208974E2,1.5166016E3,-1.7700273E3,-2.7546232E1,-4.819882E3,-7.2144513E0,5.183341E3,3.2080964E3,6.989976E3,1.801344E1,1.1285248E4,4.54891E1,1.5514645E2,9.966735E1,6.6202905E2,-5.826525E2,8.418096E2,2.096606E3,-1.8935168E3,-3.0873206E2,-4.1896248E1,-5.230543E3,2.892127E3,5.4560684E1,1.9101007E3,3.6817202E3,7.5597075E3,6.275897E3,1.3063101E2,1.080821E2,1.3413871E1,-7.7944064E0,-1.0401905E1,2.7301874E0,2.1914934E1,2.0929058E0,2.590191E1,-3.169702E-1,-1.0464188E1,-2.0074121E1,-1.0819676E1,1.00548725E1,-5.2988235E1,-4.302971E0,3.998364E1,8.218476E0,2.472674E1,1.9061195E0,3.839234E1,-5.38282E0,7.606573E1,1.741211E1,6.379451E1,-9.524421E0],"categories":[],"categories_nodes":[],"categories_segments":[],"categories_sizes":[],"default_left":[0,0,0,0,0,0,0,0,0,0,0,0,0,0,0,0,0,0,0,0,0,0,0,0,0,0,0,0,0,0,0,0,0,0,0,0,0,0,0,0,0,0,0,0,0,0,0,0,0,0,0,0,0,0,0,0,0,0,0,0,0,0,0,0,0,0,0,0,0],"id":2,"left_children":[1,3,5,7,9,11,13,15,17,19,-1,21,23,25,27,29,31,33,-1,35,-1,37,39,41,-1,43,-1,-1,-1,45,47,49,51,53,55,-1,57,59,-1,61,63,65,67,-1,-1,-1,-1,-1,-1,-1,-1,-1,-1,-1,-1,-1,-1,-1,-1,-1,-1,-1,-1,-1,-1,-1,-1,-1,-1],"loss_changes":[1.14981134E11,4.818424E9,8.722637E9,3.0644966E8,2.7276083E8,6.23615E8,1.6493363E9,6.825484E7,1.3610336E7,2.6678272E7,0E0,6.5451776E7,8.364954E7,1.8543616E8,1.144791E8,2.5461316E7,1.0367912E7,5.911784E6,0E0,7.59168E6,0E0,1.092032E6,4.3377984E7,2.0496896E7,0E0,7.847117E7,0E0,0E0,0E0,2.3568836E7,2.2991118E7,1.3200552E7,1.689008E7,1.083264E6,5.152709E6,0E0,1.902464E7,8.165048E6,0E0,2.27448E7,4.128435E7,1.0752E7,6.5958144E7,0E0,0E0,0E0,0E0,0E0,0E0,0E0,0E0,0E0,0E0,0E0,0E0,0E0,0E0,0E0,0E0,0E0,0E0,0E0,0E0,0E0,0E0,0E0,0E0,0E0,0E0],"parents":[2147483647,0,0,1,1,2,2,3,3,4,4,5,5,6,6,7,7,8,8,9,9,11,11,12,12,13,13,14,14,15,15,16,16,17,17,19,19,21,21,22,22,23,23,25,25,29,29,30,30,31,31,32,32,33,33,34,34,36,36,37,37,39,39,40,40,41,41,42,42],"right_children":[2,4,6,8,10,12,14,16,18,20,-1,22,24,26,28,30,32,34,-1,36,-1,38,40,42,-1,44,-1,-1,-1,46,48,50,52,54,56,-1,58,60,-1,62,64,66,68,-1,-1,-1,-1,-1,-1,-1,-1,-1,-1,-1,-1,-1,-1,-1,-1,-1,-1,-1,-1,-1,-1,-1,-1,-1,-1],"split_conditions":[5.474947E2,4.013126E1,1.0710115E3,1.5457267E1,4.603894E1,7.2892084E2,1.1920996E3,5.7949615E2,2.249532E1,1.0604394E2,-6.4876785E1,4.5371773E1,7.00282E1,5.976934E1,5.2973E1,4.798641E0,5.543612E1,2.4876001E1,-2.7546232E1,4.7339317E1,-7.2144513E0,6.6836926E2,5.2945515E1,4.2302307E1,1.801344E1,2.7873209E1,4.54891E1,1.5514645E2,9.966735E1,4.5650485E2,5.976934E1,5.386236E1,3.5416148E0,1.6987812E1,3.324958E2,-4.1896248E1,2.0242703E2,6.4438855E2,5.4560684E1,4.807497E1,7.6779956E2,1.0575468E3,9.9285834E2,1.3063101E2,1.080821E2,1.3413871E1,-7.7944064E0,-1.0401905E1,2.7301874E0,2.1914934E1,2.0929058E0,2.590191E1,-3.169702E-1,-1.0464188E1,-2.0074121E1,-1.0819676E1,1.00548725E1,-5.2988235E1,-4.302971E0,3.998364E1,8.218476E0,2.472674E1,1.9061195E0,3.839234E1,-5.38282E0,7.606573E1,1.741211E1,6.379451E1,-9.524421E0],"split_indices":[11,57,19,37,10,15,9,46,8,32,0,52,32,52,52,57,52,37,0,31,0,0,32,32,0,32,0,0,0,23,52,32,6,6,0,0,0,0,0,52,0,0,5,0,0,0,0,0,0,0,0,0,0,0,0,0,0,0,0,0,0,0,0,0,0,0,0,0,0],"split_type":[0,0,0,0,0,0,0,0,0,0,0,0,0,0,0,0,0,0,0,0,0,0,0,0,0,0,0,0,0,0,0,0,0,0,0,0,0,0,0,0,0,0,0,0,0,0,0,0,0,0,0,0,0,0,0,0,0,0,0,0,0,0,0,0,0,0,0,0,0],"sum_hessian":[2.047E3,1.323E3,7.24E2,1.86E2,1.137E3,2.77E2,4.47E2,1.09E2,7.7E1,1.15E2,1.022E3,1.07E2,1.7E2,2.64E2,1.83E2,7.9E1,3E1,3.5E1,4.2E1,1.13E2,2E0,2.6E1,8.1E1,1.66E2,4E0,2.58E2,6E0,1.72E2,1.1E1,2.2E1,5.7E1,1.5E1,1.5E1,3.2E1,3E0,4.9E1,6.4E1,4E0,2.2E1,2.3E1,5.8E1,8.7E1,7.9E1,4.9E1,2.09E2,1.5E1,7E0,3.7E1,2E1,4E0,1.1E1,1.2E1,3E0,5E0,2.7E1,2E0,1E0,6.3E1,1E0,2E0,2E0,1.7E1,6E0,5.6E1,2E0,8.6E1,1E0,7.8E1,1E0],"tree_param":{"num_deleted":"0","num_feature":"64","num_nodes":"69","size_leaf_vector":"1"}},{"base_weights":[-3.6275997E1,-5.427383E3,1.0057448E4,-7.818947E2,-6.276058E3,5.7747676E3,1.2813422E4,-1.9179481E3,9.3127716E2,-4.7167153E3,-6.434173E1,3.826016E3,7.2279062E3,1.1850391E4,1.6450662E2,-8.574662E2,-2.4758555E3,2.0467445E2,1.6876068E3,-4.783537E3,-7.1663556E0,3.9680725E3,3.2354166E2,7.2561553E3,1.2975353E1,1.2752271E4,1.0272835E4,1.9446169E1,-1.0981841E3,-2.7469929E1,-1.9494136E3,-1.3023466E3,3.8346545E2,1.822869E3,-1.929072E1,-3.9820361E3,-5.0510303E3,3.3078774E3,4.675301E3,1.2969563E1,-1.3053252E2,7.952783E1,6.7058467E3,1.0702868E2,1.3375408E4,1.0500521E4,5.345732E3,-1.3244556E1,-4.0327754E0,-2.4507528E1,-1.4774049E1,2.8923338E-2,-1.6293793E1,-8.8051486E-1,8.829608E0,8.596501E0,2.4693302E1,-4.0828667E1,-4.2814574E0,-2.4814987E1,-5.120725E1,3.4951355E1,3.2430255E0,4.9578255E1,1.49462595E1,8.667216E0,-1.0842758E1,7.081903E1,4.3359375E1,1.4892984E2,1.2539227E2,1.0577189E2,3.818679E0,1.510979E1,5.6776997E1],"categories":[],"categories_nodes":[],"categories_segments":[],"categories_sizes":[],"default_left":[0,0,0,0,0,0,0,0,0,0,0,0,0,0,0,0,0,0,0,0,0,0,0,0,0,0,0,0,0,0,0,0,0,0,0,0,0,0,0,0,0,0,0,0,0,0,0,0,0,0,0,0,0,0,0,0,0,0,0,0,0,0,0,0,0,0,0,0,0,0,0,0,0,0,0],"id":3,"left_children":[1,3,5,7,9,11,13,15,17,19,-1,21,23,25,-1,27,29,31,33,35,-1,37,39,41,-1,43,45,-1,47,-1,49,51,53,55,-1,57,59,61,63,-1,65,-1,67,-1,69,71,73,-1,-1,-1,-1,-1,-1,-1,-1,-1,-1,-1,-1,-1,-1,-1,-1,-1,-1,-1,-1,-1,-1,-1,-1,-1,-1,-1,-1],"loss_changes":[1.1503632E11,5.427876E9,8.612979E9,4.182846E8,2.5688474E8,7.9356826E8,1.3708001E9,7.419997E7,4.6915984E7,2.6241024E7,0E0,6.140736E7,1.82272E7,3.769262E8,0E0,3.3163068E7,6.634976E6,1.2624284E7,2.4062856E7,3.255808E6,0E0,4.1030656E7,2.8213098E6,9.540608E6,0E0,1.416274E8,9.531597E7,0E0,6.227096E6,0E0,3.951616E6,2.138993E6,9.734088E6,2.3407264E7,0E0,9.718816E6,1.261312E6,3.574061E7,4.291251E7,0E0,5.6953885E6,0E0,5.663283E7,0E0,2.5171968E7,9.525965E7,1.605232E6,0E0,0E0,0E0,0E0,0E0,0E0,0E0,0E0,0E0,0E0,0E0,0E0,0E0,0E0,0E0,0E0,0E0,0E0,0E0,0E0,0E0,0E0,0E0,0E0,0E0,0E0,0E0,0E0],"parents":[2147483647,0,0,1,1,2,2,3,3,4,4,5,5,6,6,7,7,8,8,9,9,11,11,12,12,13,13,15,15,16,16,17,17,18,18,19,19,21,21,22,22,23,23,25,25,26,26,28,28,30,30,31,31,32,32,33,33,35,35,36,36,37,37,38,38,40,40,42,42,44,44,45,45,46,46],"right_children":[2,4,6,8,10,12,14,16,18,20,-1,22,24,26,-1,28,30,32,34,36,-1,38,40,42,-1,44,46,-1,48,-1,50,52,54,56,-1,58,60,62,64,-1,66,-1,68,-1,70,72,74,-1,-1,-1,-1,-1,-1,-1,-1,-1,-1,-1,-1,-1,-1,-1,-1,-1,-1,-1,-1,-1,-1,-1,-1,-1,-1,-1,-1],"split_conditions":[5.9030054E2,3.35348E1,1.0609113E3,3.4800793E2,4.603894E1,8.605006E2,1.6865284E3,1.83738E1,5.393728E2,1.0604394E2,-6.434173E1,7.565982E1,7.00282E1,3.849406E1,1.6450662E2,2.3859785E0,3.39762E2,5.7691166E1,8.744856E1,6.809307E0,-7.1663556E0,6.646639E2,6.325139E2,3.823001E1,1.2975353E1,1.0406775E3,5.976934E1,1.9446169E1,6.006738E1,-2.7469929E1,6.410536E1,4.6170135E2,5.183718E2,6.0543236E1,-1.929072E1,5.1413555E1,4.238407E1,7.0913043E2,7.4801263E2,1.2969563E1,7.926213E1,7.952783E1,9.612075E2,1.0702868E2,2.8959803E1,1.628443E3,1.106344E3,-1.3244556E1,-4.0327754E0,-2.4507528E1,-1.4774049E1,2.8923338E-2,-1.6293793E1,-8.8051486E-1,8.829608E0,8.596501E0,2.4693302E1,-4.0828667E1,-4.2814574E0,-2.4814987E1,-5.120725E1,3.4951355E1,3.2430255E0,4.9578255E1,1.49462595E1,8.667216E0,-1.0842758E1,7.081903E1,4.3359375E1,1.4892984E2,1.2539227E2,1.0577189E2,3.818679E0,1.510979E1,5.6776997E1],"split_indices":[19,36,39,9,10,2,45,31,2,32,0,32,32,32,0,31,2,32,32,47,0,15,0,32,0,9,52,0,52,0,52,0,20,32,0,31,6,19,23,0,32,0,23,0,32,46,0,0,0,0,0,0,0,0,0,0,0,0,0,0,0,0,0,0,0,0,0,0,0,0,0,0,0,0,0],"split_type":[0,0,0,0,0,0,0,0,0,0,0,0,0,0,0,0,0,0,0,0,0,0,0,0,0,0,0,0,0,0,0,0,0,0,0,0,0,0,0,0,0,0,0,0,0,0,0,0,0,0,0,0,0,0,0,0,0,0,0,0,0,0,0,0,0,0,0,0,0,0,0,0,0,0,0],"sum_hessian":[2.112E3,1.377E3,7.35E2,2.13E2,1.164E3,2.89E2,4.46E2,1.28E2,8.5E1,1.1E2,1.054E3,1.25E2,1.64E2,3.56E2,9E1,4.5E1,8.3E1,4.4E1,4.1E1,1.08E2,2E0,1.2E2,5E0,1.63E2,1E0,2.22E2,1.34E2,3E0,4.2E1,5.2E1,3.1E1,4E0,4E1,4E1,1E0,3.1E1,7.7E1,6.5E1,5.5E1,1E0,4E0,6.6E1,9.7E1,5.6E1,1.66E2,1.27E2,7E0,3.1E1,1.1E1,1.3E1,1.8E1,1E0,3E0,2.1E1,1.9E1,1.7E1,2.3E1,3E1,1E0,3E0,7.4E1,6.1E1,4E0,5E1,5E0,2E0,2E0,8.2E1,1.5E1,5.3E1,1.13E2,1.26E2,1E0,1E0,6E0],"tree_param":{"num_deleted":"0","num_feature":"64","num_nodes":"75","size_leaf_vector":"1"}},{"base_weights":[-1.0335185E2,-5.135395E3,1.0478342E4,-5.5833374E1,-6.165983E3,6.06586E3,1.2858295E4,1.6950497E3,-1.6132661E3,-4.591185E3,-6.3477596E1,4.14896E3,6.9449614E3,1.1516991E4,1.5025889E4,3.1616525E2,2.0831853E3,-2.281652E3,-4.656797E2,-4.648476E3,-7.118579E0,4.4260166E3,1.3278532E2,7.044367E3,1.2822015E1,1.2337399E4,9.950441E3,1.5299129E2,9.3154015E1,1.4358068E3,-9.151753E1,2.3058506E3,-1.2752596E2,-2.6504854E3,-1.8042446E3,1.775309E3,-6.545302E2,-4.016789E3,-5.084625E3,4.5233154E3,-1.2410998E1,-1.0375708E1,5.743707E2,9.5238754E1,6.77534E3,1.0644552E4,1.287583E2,4.392359E3,1.0261797E4,-3.3040283E0,1.785242E1,3.9535418E0,-1.052187E1,1.8396997E1,3.1058556E1,-1.23250265E1,6.303796E0,-2.8238047E1,-1.6819675E1,-2.023623E1,-1.1602895E1,2.4814452E-1,2.3505356E1,-4.3539677E0,-2.7917988E1,-4.0508194E1,-1.0895786E1,-5.1468697E1,-4.2600513E0,4.0759827E1,5.6140182E1,1.2566464E1,-2.9936197E0,7.071827E1,5.632999E1,1.0744563E2,2.972012E1,7.161315E1,5.2531223E0,1.03897644E2,2.959514E1],"categories":[],"categories_nodes":[],"categories_segments":[],"categories_sizes":[],"default_left":[0,0,0,0,0,0,0,0,0,0,0,0,0,0,0,0,0,0,0,0,0,0,0,0,0,0,0,0,0,0,0,0,0,0,0,0,0,0,0,0,0,0,0,0,0,0,0,0,0,0,0,0,0,0,0,0,0,0,0,0,0,0,0,0,0,0,0,0,0,0,0,0,0,0,0,0,0,0,0,0,0],"id":4,"left_children":[1,3,5,7,9,11,13,15,17,19,-1,21,23,25,27,29,31,33,35,37,-1,39,41,43,-1,45,47,-1,-1,49,51,53,55,57,59,61,63,65,67,69,-1,-1,71,-1,73,75,-1,77,79,-1,-1,-1,-1,-1,-1,-1,-1,-1,-1,-1,-1,-1,-1,-1,-1,-1,-1,-1,-1,-1,-1,-1,-1,-1,-1,-1,-1,-1,-1,-1,-1],"loss_changes":[1.10861935E11,7.386153E9,6.9685084E9,6.544595E8,3.0663885E8,3.7056614E8,1.0916659E9,5.9818336E7,9.635034E7,2.447232E7,0E0,8.509082E7,8.159642E7,2.2810214E8,1.118167E8,1.1999324E7,4.3611936E7,9.304576E6,2.1476168E7,1.3463808E7,0E0,4.5314944E7,3.696823E6,4.086733E7,0E0,2.2454272E7,1.2624998E8,0E0,0E0,4.910083E6,9.770443E6,2.412E7,8.314156E6,2.468576E6,3.020272E6,3.969397E6,1.9860078E7,1.065024E6,1.7815424E7,1.1758848E7,0E0,0E0,3.3568255E6,0E0,9.612288E6,4.899328E6,0E0,7.119186E7,5.615616E7,0E0,0E0,0E0,0E0,0E0,0E0,0E0,0E0,0E0,0E0,0E0,0E0,0E0,0E0,0E0,0E0,0E0,0E0,0E0,0E0,0E0,0E0,0E0,0E0,0E0,0E0,0E0,0E0,0E0,0E0,0E0,0E0],"parents":[2147483647,0,0,1,1,2,2,3,3,4,4,5,5,6,6,7,7,8,8,9,9,11,11,12,12,13,13,14,14,15,15,16,16,17,17,18,18,19,19,21,21,22,22,23,23,25,25,26,26,29,29,30,30,31,31,32,32,33,33,34,34,35,35,36,36,37,37,38,38,39,39,42,42,44,44,45,45,47,47,48,48],"right_children":[2,4,6,8,10,12,14,16,18,20,-1,22,24,26,28,30,32,34,36,38,-1,40,42,44,-1,46,48,-1,-1,50,52,54,56,58,60,62,64,66,68,70,-1,-1,72,-1,74,76,-1,78,80,-1,-1,-1,-1,-1,-1,-1,-1,-1,-1,-1,-1,-1,-1,-1,-1,-1,-1,-1,-1,-1,-1,-1,-1,-1,-1,-1,-1,-1,-1,-1,-1],"split_conditions":[6.671135E2,3.309536E1,1.0312135E3,6.9582385E-1,4.603894E1,7.76739E2,1.3144084E3,5.7243036E2,3.5542035E2,1.0604394E2,-6.3477596E1,8.0166266E2,7.00282E1,3.9624725E1,4.846384E1,4.3460406E2,6.6836926E2,2.584531E2,3.338284E2,4.7339317E1,-7.118579E0,7.473025E1,3.5806423E1,2.753402E1,1.2822015E1,1.1695421E3,4.0204693E1,1.5299129E2,9.3154015E1,3.2107278E2,4.798641E0,6.385624E2,5.341842E1,8.135664E1,1.7355782E1,3.55819E2,1.9684107E1,9.281398E1,2.0242703E2,7.336163E2,-1.2410998E1,-1.0375708E1,4.5438347E1,9.5238754E1,9.612075E2,1.1086941E3,1.287583E2,1.2093312E3,6.313261E1,-3.3040283E0,1.785242E1,3.9535418E0,-1.052187E1,1.8396997E1,3.1058556E1,-1.23250265E1,6.303796E0,-2.8238047E1,-1.6819675E1,-2.023623E1,-1.1602895E1,2.4814452E-1,2.3505356E1,-4.3539677E0,-2.7917988E1,-4.0508194E1,-1.0895786E1,-5.1468697E1,-4.2600513E0,4.0759827E1,5.6140182E1,1.2566464E1,-2.9936197E0,7.071827E1,5.632999E1,1.0744563E2,2.972012E1,7.161315E1,5.2531223E0,1.03897644E2,2.959514E1],"split_indices":[59,8,11,36,10,11,11,46,19,32,0,19,32,32,32,0,0,11,11,31,0,32,32,32,0,0,32,0,0,0,57,50,32,32,49,0,8,32,0,11,0,0,32,0,23,15,0,0,32,0,0,0,0,0,0,0,0,0,0,0,0,0,0,0,0,0,0,0,0,0,0,0,0,0,0,0,0,0,0,0,0],"split_type":[0,0,0,0,0,0,0,0,0,0,0,0,0,0,0,0,0,0,0,0,0,0,0,0,0,0,0,0,0,0,0,0,0,0,0,0,0,0,0,0,0,0,0,0,0,0,0,0,0,0,0,0,0,0,0,0,0,0,0,0,0,0,0,0,0,0,0,0,0,0,0,0,0,0,0,0,0,0,0,0,0],"sum_hessian":[2.08E3,1.41E3,6.7E2,2.38E2,1.172E3,2.36E2,4.34E2,1.12E2,1.26E2,1.24E2,1.048E3,7.6E1,1.6E2,2.72E2,1.62E2,2.5E1,8.7E1,7.9E1,4.7E1,1.22E2,2E0,7.1E1,5E0,1.57E2,3E0,1.74E2,9.8E1,1.53E2,9E0,6E0,1.9E1,7.9E1,8E0,4.2E1,3.7E1,3E0,4.4E1,5.4E1,6.8E1,7E1,1E0,1E0,4E0,1.2E1,1.45E2,4.7E1,1.27E2,6E0,9.2E1,1E0,5E0,1.3E1,6E0,5.2E1,2.7E1,3E0,5E0,3.4E1,8E0,2.6E1,1.1E1,1E0,2E0,4.1E1,3E0,5.3E1,1E0,6.7E1,1E0,5.3E1,1.7E1,2E0,2E0,1.11E2,3.4E1,4.6E1,1E0,3E0,3E0,9E1,2E0],"tree_param":{"num_deleted":"0","num_feature":"64","num_nodes":"81","size_leaf_vector":"1"}},{"base_weights":[-9.484279E1,-5.349455E3,9.913728E3,-8.7699396E2,-6.1296743E3,5.324276E3,1.2520456E4,2.1265439E2,-2.430642E3,-4.6134473E3,-6.2852337E1,3.7905422E3,6.924254E3,1.0987168E4,1.4688544E4,1.212688E3,-4.9865628E2,-2.7165672E1,-1.9660061E3,-4.677461E3,-7.071121E0,4.0688013E3,1.256116E3,7.3590503E3,4.2084014E3,1.169925E4,9.588946E3,1.4742612E2,2.28882E1,1.285765E3,-1.2205825E1,-8.4738403E2,1.1394121E2,-2.3507969E1,-1.3380927E3,-4.7477563E3,-2.6559995E3,4.156447E3,-8.224978E2,-6.4257306E2,1.5976506E3,6.6051807E3,8.9666374E1,6.297873E3,3.0920525E3,1.0099821E4,1.2356013E2,9.822566E3,4.3696705E1,9.64572E0,1.8525179E1,-1.5517601E1,-6.0861955E0,2.5062038E1,-7.4461347E-1,-2.651375E0,-2.1431536E1,-4.1995815E1,-5.1797077E1,-4.23875E0,-3.017649E1,3.296568E1,4.8957542E1,5.8176193E0,-1.8155087E1,2.3020165E0,-1.1940613E1,1.7204453E1,6.205737E-1,6.926815E1,5.239505E0,6.891617E1,1.664576E1,-4.608303E0,3.3787464E1,1.0174562E2,2.9571518E1,9.9343895E1,3.1564138E1],"categories":[],"categories_nodes":[],"categories_segments":[],"categories_sizes":[],"default_left":[0,0,0,0,0,0,0,0,0,0,0,0,0,0,0,0,0,0,0,0,0,0,0,0,0,0,0,0,0,0,0,0,0,0,0,0,0,0,0,0,0,0,0,0,0,0,0,0,0,0,0,0,0,0,0,0,0,0,0,0,0,0,0,0,0,0,0,0,0,0,0,0,0,0,0,0,0,0,0],"id":5,"left_children":[1,3,5,7,9,11,13,15,17,19,-1,21,23,25,27,29,31,-1,33,35,-1,37,39,41,43,45,47,-1,-1,49,-1,51,53,-1,55,57,59,61,63,65,67,69,-1,71,73,75,-1,77,-1,-1,-1,-1,-1,-1,-1,-1,-1,-1,-1,-1,-1,-1,-1,-1,-1,-1,-1,-1,-1,-1,-1,-1,-1,-1,-1,-1,-1,-1,-1],"loss_changes":[1.1059965E11,4.8066437E9,8.594874E9,3.4926048E8,2.479104E8,6.215936E8,1.3711196E9,8.738754E7,5.951616E6,2.4949248E7,0E0,9.150528E7,1.2017818E8,1.606226E8,9.229926E7,1.0638008E7,1.5477894E7,0E0,5.552576E6,3.16288E6,0E0,5.6148736E7,1.0753628E7,7.287194E7,2.717824E7,6.1136896E7,7.657267E7,0E0,0E0,7.314968E6,0E0,6.791844E6,1.2355743E7,0E0,1.3252478E7,3.346688E6,3.56438E6,6.0782464E7,5.2395295E6,1.7188498E6,2.344552E6,1.4893363E8,0E0,5.034336E6,1.6835888E7,3.42016E5,0E0,3.796787E7,0E0,0E0,0E0,0E0,0E0,0E0,0E0,0E0,0E0,0E0,0E0,0E0,0E0,0E0,0E0,0E0,0E0,0E0,0E0,0E0,0E0,0E0,0E0,0E0,0E0,0E0,0E0,0E0,0E0,0E0,0E0],"parents":[2147483647,0,0,1,1,2,2,3,3,4,4,5,5,6,6,7,7,8,8,9,9,11,11,12,12,13,13,14,14,15,15,16,16,18,18,19,19,21,21,22,22,23,23,24,24,25,25,26,26,29,29,31,31,32,32,34,34,35,35,36,36,37,37,38,38,39,39,40,40,41,41,43,43,44,44,45,45,47,47],"right_children":[2,4,6,8,10,12,14,16,18,20,-1,22,24,26,28,30,32,-1,34,36,-1,38,40,42,44,46,48,-1,-1,50,-1,52,54,-1,56,58,60,62,64,66,68,70,-1,72,74,76,-1,78,-1,-1,-1,-1,-1,-1,-1,-1,-1,-1,-1,-1,-1,-1,-1,-1,-1,-1,-1,-1,-1,-1,-1,-1,-1,-1,-1,-1,-1,-1,-1],"split_conditions":[5.9030054E2,3.35348E1,1.0710115E3,1.4807955E1,4.603894E1,8.282876E2,1.2729415E3,4.798641E0,2.584531E2,1.0604394E2,-6.2852337E1,6.9475464E1,1.1412235E3,3.9624725E1,5.6753906E1,5.5888983E2,7.070786E1,-2.7165672E1,2.0319632E1,2.756742E2,-7.071121E0,7.7473456E2,7.129428E1,1.0884688E3,3.250288E1,1.1695421E3,5.976934E1,1.4742612E2,2.28882E1,5.401581E1,-1.2205825E1,5.4392128E1,6.036901E1,-2.3507969E1,2.249532E1,4.7585907E1,2.0972757E2,6.675989E2,8.4898096E2,6.509814E2,8.203906E2,1.0850377E3,8.9666374E1,1.0491189E3,3.413867E1,1.1086941E3,1.2356013E2,1.3789736E3,4.3696705E1,9.64572E0,1.8525179E1,-1.5517601E1,-6.0861955E0,2.5062038E1,-7.4461347E-1,-2.651375E0,-2.1431536E1,-4.1995815E1,-5.1797077E1,-4.23875E0,-3.017649E1,3.296568E1,4.8957542E1,5.8176193E0,-1.8155087E1,2.3020165E0,-1.1940613E1,1.7204453E1,6.205737E-1,6.926815E1,5.239505E0,6.891617E1,1.664576E1,-4.608303E0,3.3787464E1,1.0174562E2,2.9571518E1,9.9343895E1,3.1564138E1],"split_indices":[19,36,19,8,10,0,15,57,11,32,0,32,46,32,32,11,32,0,8,46,0,23,32,46,32,0,52,0,0,52,0,52,52,0,8,37,0,23,3,0,0,46,0,0,32,15,0,3,0,0,0,0,0,0,0,0,0,0,0,0,0,0,0,0,0,0,0,0,0,0,0,0,0,0,0,0,0,0,0],"split_type":[0,0,0,0,0,0,0,0,0,0,0,0,0,0,0,0,0,0,0,0,0,0,0,0,0,0,0,0,0,0,0,0,0,0,0,0,0,0,0,0,0,0,0,0,0,0,0,0,0,0,0,0,0,0,0,0,0,0,0,0,0,0,0,0,0,0,0,0,0,0,0,0,0,0,0,0,0,0,0],"sum_hessian":[2.101E3,1.378E3,7.23E2,2.05E2,1.173E3,2.63E2,4.6E2,1.21E2,8.4E1,1.12E2,1.061E3,1.36E2,1.27E2,2.73E2,1.87E2,5E1,7.1E1,4.9E1,3.5E1,1.1E2,2E0,1.22E2,1.4E1,1.08E2,1.9E1,1.76E2,9.7E1,1.86E2,1E0,4.9E1,1E0,4.5E1,2.6E1,2E1,1.5E1,1.05E2,5E0,1.2E2,2E0,2E0,1.2E1,7.7E1,3.1E1,5E0,1.4E1,5.6E1,1.2E2,9.2E1,5E0,3.3E1,1.6E1,1E1,3.5E1,1E0,2.5E1,7E0,8E0,5.1E1,5.4E1,1E0,4E0,5.8E1,6.2E1,1E0,1E0,1E0,1E0,1.1E1,1E0,7.3E1,4E0,4E0,1E0,1E0,1.3E1,5.5E1,1E0,9E1,2E0],"tree_param":{"num_deleted":"0","num_feature":"64","num_nodes":"79","size_leaf_vector":"1"}},{"base_weights":[9.14273E1,-5.308802E3,9.792921E3,-8.1884186E2,-6.0851943E3,5.4226265E3,1.2357068E4,-2.1349187E3,5.5930786E2,-4.5837065E3,-6.243705E1,3.571378E3,6.8475044E3,1.0887549E4,1.4664142E4,1.8042657E3,-2.2317449E3,-1.3892015E2,1.6191636E3,-4.647843E3,-1.6740317E3,3.8569392E3,1.4206279E3,6.9490684E3,1.2508119E1,1.1009552E4,4.3648983E1,1.4915283E4,9.449753E1,2.32298E1,3.834187E0,-2.6870018E1,-1.7598345E3,-4.7595123E2,4.2395383E2,1.7626615E3,-1.9168774E1,-3.924649E1,-5.1063152E1,-6.0761795E0,-2.4366364E1,4.02018E3,-3.0985516E2,-7.885486E2,1.9910955E3,7.0529883E3,1.3148016E3,9.9523834E1,1.1646225E4,1.4088649E4,1.6669038E2,-1.9570793E1,-1.3463887E1,-1.5203137E0,-1.1651082E1,8.130185E0,-1.6273582E1,1.1786794E1,2.4919691E1,3.524222E1,5.7085575E1,7.772307E0,-7.759343E0,2.2905054E0,-1.2040985E1,3.1777838E1,5.1996484E0,2.0383015E1,7.072964E1,-2.45929E1,3.3925953E1,1.228595E2,9.737643E1,1.4184067E2,1.2715278E1],"categories":[],"categories_nodes":[],"categories_segments":[],"categories_sizes":[],"default_left":[0,0,0,0,0,0,0,0,0,0,0,0,0,0,0,0,0,0,0,0,0,0,0,0,0,0,0,0,0,0,0,0,0,0,0,0,0,0,0,0,0,0,0,0,0,0,0,0,0,0,0,0,0,0,0,0,0,0,0,0,0,0,0,0,0,0,0,0,0,0,0,0,0,0,0],"id":6,"left_children":[1,3,5,7,9,11,13,15,17,19,-1,21,23,25,27,29,31,33,35,37,39,41,43,45,-1,47,-1,49,-1,-1,-1,-1,51,53,55,57,-1,-1,-1,-1,-1,59,61,63,65,67,69,-1,71,73,-1,-1,-1,-1,-1,-1,-1,-1,-1,-1,-1,-1,-1,-1,-1,-1,-1,-1,-1,-1,-1,-1,-1,-1,-1],"loss_changes":[1.0944292E11,4.673196E9,8.3039355E9,3.621305E8,2.4365466E8,7.0885376E8,1.4337802E9,4.293117E7,7.274699E7,1.330688E7,0E0,7.006374E7,7.998208E7,1.8351718E8,9.477325E7,1.320367E6,1.675536E7,1.1584144E7,2.3167968E7,1.6431872E7,1.772465E6,7.470605E7,2.173429E7,8.031027E7,0E0,7.591936E7,0E0,1.1608064E7,0E0,0E0,0E0,0E0,1.605632E6,8.30567E6,1.9679216E7,1.3247056E7,0E0,0E0,0E0,0E0,0E0,6.696768E7,3.1364202E6,1.9672525E6,2.104272E7,6.08768E5,3.971052E7,0E0,9.0368E7,1.3116826E8,0E0,0E0,0E0,0E0,0E0,0E0,0E0,0E0,0E0,0E0,0E0,0E0,0E0,0E0,0E0,0E0,0E0,0E0,0E0,0E0,0E0,0E0,0E0,0E0,0E0],"parents":[2147483647,0,0,1,1,2,2,3,3,4,4,5,5,6,6,7,7,8,8,9,9,11,11,12,12,13,13,14,14,15,15,16,16,17,17,18,18,19,19,20,20,21,21,22,22,23,23,25,25,27,27,32,32,33,33,34,34,35,35,41,41,42,42,43,43,44,44,45,45,46,46,48,48,49,49],"right_children":[2,4,6,8,10,12,14,16,18,20,-1,22,24,26,28,30,32,34,36,38,40,42,44,46,-1,48,-1,50,-1,-1,-1,-1,52,54,56,58,-1,-1,-1,-1,-1,60,62,64,66,68,70,-1,72,74,-1,-1,-1,-1,-1,-1,-1,-1,-1,-1,-1,-1,-1,-1,-1,-1,-1,-1,-1,-1,-1,-1,-1,-1,-1],"split_conditions":[6.822778E2,3.35348E1,1.0173326E3,4.5070374E2,6.66484E1,7.0167303E2,1.1920996E3,8.0179274E-1,5.7243036E2,8.297439E1,-6.243705E1,6.9475464E1,7.00282E1,5.976934E1,5.2973E1,2.765271E2,2.584531E2,5.378796E2,8.744856E1,4.7339317E1,6.572209E1,7.6114575E2,7.129428E1,1.1212992E3,1.2508119E1,1.0406775E3,4.3648983E1,1.6332994E3,9.449753E1,2.32298E1,3.834187E0,-2.6870018E1,3.6176096E2,4.1093234E2,4.1846283E2,5.543612E1,-1.9168774E1,-3.924649E1,-5.1063152E1,-6.0761795E0,-2.4366364E1,7.4656976E2,8.244795E2,6.509814E2,7.565982E1,1.6834444E1,9.2287994E2,9.9523834E1,4.4267357E1,1.5451896E3,1.6669038E2,-1.9570793E1,-1.3463887E1,-1.5203137E0,-1.1651082E1,8.130185E0,-1.6273582E1,1.1786794E1,2.4919691E1,3.524222E1,5.7085575E1,7.772307E0,-7.759343E0,2.2905054E0,-1.2040985E1,3.1777838E1,5.1996484E0,2.0383015E1,7.072964E1,-2.45929E1,3.3925953E1,1.228595E2,9.737643E1,1.4184067E2,1.2715278E1],"split_indices":[46,36,54,45,24,9,9,31,46,52,0,32,32,52,52,9,11,46,32,31,24,54,32,20,0,9,0,20,0,0,0,0,3,11,9,52,0,0,0,0,0,39,3,0,32,32,9,0,52,0,0,0,0,0,0,0,0,0,0,0,0,0,0,0,0,0,0,0,0,0,0,0,0,0,0],"split_type":[0,0,0,0,0,0,0,0,0,0,0,0,0,0,0,0,0,0,0,0,0,0,0,0,0,0,0,0,0,0,0,0,0,0,0,0,0,0,0,0,0,0,0,0,0,0,0,0,0,0,0,0,0,0,0,0,0,0,0,0,0,0,0,0,0,0,0,0,0,0,0,0,0,0,0],"sum_hessian":[2.087E3,1.341E3,7.46E2,1.98E2,1.143E3,2.77E2,4.69E2,1.01E2,9.7E1,1.12E2,1.031E3,1.22E2,1.55E2,2.9E2,1.79E2,2E0,9.9E1,5.9E1,3.8E1,1.09E2,3E0,1.07E2,1.5E1,1.52E2,3E0,2.84E2,6E0,1.69E2,1E1,1E0,1E0,4.8E1,5.1E1,3.7E1,2.2E1,3.7E1,1E0,4.6E1,6.3E1,2E0,1E0,1.03E2,4E0,3E0,1.2E1,1.49E2,3E0,1.13E2,1.71E2,1.21E2,4.8E1,3.2E1,1.9E1,2.6E1,1.1E1,1.9E1,3E0,2.2E1,1.5E1,8.2E1,2.1E1,1E0,3E0,1E0,2E0,6E0,6E0,1E0,1.48E2,1E0,2E0,1.24E2,4.7E1,1.2E2,1E0],"tree_param":{"num_deleted":"0","num_feature":"64","num_nodes":"75","size_leaf_vector":"1"}},{"base_weights":[2.4941576E0,-5.2226113E3,9.772723E3,-7.6984E2,-6.00886E3,5.5072163E3,1.2539598E4,2.5537868E2,-2.2322734E3,-4.5095566E3,-6.164788E1,3.525985E3,6.9958013E3,1.1027449E4,1.4783688E2,-3.482985E2,1.4565043E3,-2.6519428E1,-1.6692802E3,-4.540308E3,-5.32707E0,2.8098235E3,4.266932E3,6.143671E3,7.369411E3,1.1099415E4,3.502849E3,5.752893E2,-5.987028E2,1.69159E3,-2.0851105E1,-1.800647E3,-9.351525E2,-3.991541E1,-4.9336777E1,2.9991062E3,-1.3710323E2,4.54507E3,1.00618304E3,6.293342E1,1.40170765E1,7.985656E1,6.007858E3,9.858026E1,1.1713317E2,-7.2415036E-1,4.718742E1,1.2969206E1,-1.5603363E1,-7.103202E0,1.2810421E1,1.80118E1,-2.238864E0,-1.4863467E1,-2.2655521E1,9.212546E0,-1.7074974E1,2.6104609E1,4.068741E1,-1.0937347E1,8.652293E0,6.1086708E1,4.0618546E1,1.7528982E1,-3.2483168E0,2.0150871E1,6.693531E1],"categories":[],"categories_nodes":[],"categories_segments":[],"categories_sizes":[],"default_left":[0,0,0,0,0,0,0,0,0,0,0,0,0,0,0,0,0,0,0,0,0,0,0,0,0,0,0,0,0,0,0,0,0,0,0,0,0,0,0,0,0,0,0,0,0,0,0,0,0,0,0,0,0,0,0,0,0,0,0,0,0,0,0,0,0,0,0],"id":7,"left_children":[1,3,5,7,9,11,13,15,17,19,-1,21,23,25,-1,27,29,-1,31,33,-1,35,37,39,41,43,45,47,49,51,-1,53,55,-1,-1,57,59,61,63,-1,-1,-1,65,-1,-1,-1,-1,-1,-1,-1,-1,-1,-1,-1,-1,-1,-1,-1,-1,-1,-1,-1,-1,-1,-1,-1,-1],"loss_changes":[1.0695074E11,4.7742157E9,8.546484E9,3.094288E8,2.4338842E8,8.276613E8,1.3368607E9,8.8968536E7,1.5656192E7,1.1400448E7,0E0,5.487104E7,6.937088E6,1.0624614E8,0E0,1.9308598E7,3.766304E7,0E0,2.07728E6,4.484096E6,0E0,3.7783936E7,4.9842944E7,3.0923648E7,4.347955E7,8.648499E7,1.7730264E7,2.9764052E7,1.4547742E7,8.59004E6,0E0,1.308448E6,1.3043332E7,0E0,0E0,1.556832E7,5.7406455E6,1.674304E7,6.532731E6,0E0,0E0,0E0,9.054605E7,0E0,0E0,0E0,0E0,0E0,0E0,0E0,0E0,0E0,0E0,0E0,0E0,0E0,0E0,0E0,0E0,0E0,0E0,0E0,0E0,0E0,0E0,0E0,0E0],"parents":[2147483647,0,0,1,1,2,2,3,3,4,4,5,5,6,6,7,7,8,8,9,9,11,11,12,12,13,13,15,15,16,16,18,18,19,19,21,21,22,22,23,23,24,24,25,25,26,26,27,27,28,28,29,29,31,31,32,32,35,35,36,36,37,37,38,38,42,42],"right_children":[2,4,6,8,10,12,14,16,18,20,-1,22,24,26,-1,28,30,-1,32,34,-1,36,38,40,42,44,46,48,50,52,-1,54,56,-1,-1,58,60,62,64,-1,-1,-1,66,-1,-1,-1,-1,-1,-1,-1,-1,-1,-1,-1,-1,-1,-1,-1,-1,-1,-1,-1,-1,-1,-1,-1,-1],"split_conditions":[6.820709E2,3.35348E1,1.00801776E3,1.5547683E1,4.603894E1,7.0167303E2,1.2874363E3,5.393728E2,2.584531E2,7.0117455E1,-6.164788E1,6.646639E2,7.875195E2,1.3565847E3,1.4783688E2,4.798641E0,6.289602E2,-2.6519428E1,3.505408E2,4.7339317E1,-5.32707E0,6.57274E2,7.4801263E2,8.9670746E2,1.172506E3,1.112321E3,1.5000836E3,4.5650485E2,1.4571111E1,3.5416148E0,-2.0851105E1,3.339137E2,3.958064E2,-3.991541E1,-4.9336777E1,7.675058E2,7.969988E2,7.0791986E2,8.9424634E2,6.293342E1,1.40170765E1,7.985656E1,1.0974512E3,9.858026E1,1.1713317E2,-7.2415036E-1,4.718742E1,1.2969206E1,-1.5603363E1,-7.103202E0,1.2810421E1,1.80118E1,-2.238864E0,-1.4863467E1,-2.2655521E1,9.212546E0,-1.7074974E1,2.6104609E1,4.068741E1,-1.0937347E1,8.652293E0,6.1086708E1,4.0618546E1,1.7528982E1,-3.2483168E0,2.0150871E1,6.693531E1],"split_indices":[45,36,23,6,10,9,15,2,11,6,0,15,9,0,0,57,2,0,0,31,0,15,23,0,45,15,46,23,6,6,0,51,2,0,0,46,46,59,46,0,0,0,2,0,0,0,0,0,0,0,0,0,0,0,0,0,0,0,0,0,0,0,0,0,0,0,0],"split_type":[0,0,0,0,0,0,0,0,0,0,0,0,0,0,0,0,0,0,0,0,0,0,0,0,0,0,0,0,0,0,0,0,0,0,0,0,0,0,0,0,0,0,0,0,0,0,0,0,0,0,0,0,0,0,0,0,0,0,0,0,0,0,0,0,0,0,0],"sum_hessian":[2.093E3,1.364E3,7.29E2,2.05E2,1.159E3,2.88E2,4.41E2,1.21E2,8.4E1,1.12E2,1.047E3,1.25E2,1.63E2,2.67E2,1.74E2,8.1E1,4E1,4.6E1,3.8E1,1.11E2,1E0,6.6E1,5.9E1,5.5E1,1.08E2,2.64E2,3E0,1.7E1,6.4E1,3.8E1,2E0,3.1E1,7E0,5.1E1,6E1,6.2E1,4E0,5.4E1,5E0,5.3E1,2E0,7.1E1,3.7E1,9.3E1,1.71E2,1E0,2E0,1.3E1,4E0,6.1E1,3E0,3.6E1,2E0,2.1E1,1E1,2E0,5E0,4.8E1,1.4E1,2E0,2E0,1E1,4.4E1,3E0,2E0,6E0,3.1E1],"tree_param":{"num_deleted":"0","num_feature":"64","num_nodes":"67","size_leaf_vector":"1"}},{"base_weights":[1.0791287E2,-5.137403E3,9.795835E3,-7.0406464E2,-5.9291465E3,5.38801E3,1.2390487E4,-1.7465535E3,8.308186E2,-4.419146E3,-6.104562E1,3.633869E3,6.8889824E3,1.0883975E4,1.451223E4,-8.32666E2,-2.2450142E3,1.774343E2,1.5117477E3,-4.475793E3,-6.6133885E0,3.0376135E3,4.741871E3,6.9686885E3,7.6676495E2,1.1640312E4,9.459108E3,1.3278807E4,1.5654945E2,2.274383E1,-1.0300725E3,-1.8013905E3,-2.5569558E3,-1.7640913E2,5.392963E2,1.4970421E2,2.0701897E3,-3.8435677E1,-4.881506E3,3.1520442E3,-1.1789822E3,5.0395835E3,-9.074939E2,7.064199E3,2.9006484E3,2.4026123E-1,1.1261213E1,1.0120563E4,1.2188171E2,9.589108E3,3.9418335E1,1.3414242E4,1.3850121E0,-1.8882772E1,-8.398697E0,-2.061801E1,-7.9106994E0,-2.9362799E1,-1.9549524E1,8.867911E0,-6.9698367E0,1.0206652E1,-4.3068237E0,5.709752E0,-9.408993E0,2.2796154E1,-1.8968674E1,-4.9408306E1,-3.9404907E0,3.3308464E1,2.7247403E0,-1.9133192E1,1.4484594E0,5.4661343E1,2.1868898E1,5.1202173E0,-1.8732626E1,6.542098E1,7.928599E1,-2.4804613E1,4.8660416E1,1.0207503E2,2.8433142E1,5.761883E1,9.778135E1,1.352754E2,5.3927837E1],"categories":[],"categories_nodes":[],"categories_segments":[],"categories_sizes":[],"default_left":[0,0,0,0,0,0,0,0,0,0,0,0,0,0,0,0,0,0,0,0,0,0,0,0,0,0,0,0,0,0,0,0,0,0,0,0,0,0,0,0,0,0,0,0,0,0,0,0,0,0,0,0,0,0,0,0,0,0,0,0,0,0,0,0,0,0,0,0,0,0,0,0,0,0,0,0,0,0,0,0,0,0,0,0,0,0,0],"id":8,"left_children":[1,3,5,7,9,11,13,15,17,19,-1,21,23,25,27,29,31,33,35,37,-1,39,41,43,45,47,49,51,-1,-1,53,55,57,59,61,63,65,-1,67,69,71,73,75,77,79,-1,-1,81,-1,83,-1,85,-1,-1,-1,-1,-1,-1,-1,-1,-1,-1,-1,-1,-1,-1,-1,-1,-1,-1,-1,-1,-1,-1,-1,-1,-1,-1,-1,-1,-1,-1,-1,-1,-1,-1,-1],"loss_changes":[1.0590048E11,4.7414395E9,8.3049595E9,3.310714E8,2.7684045E8,6.937528E8,1.3124076E9,5.4161664E7,3.7104068E7,2.3222528E7,0E0,7.015962E7,6.5901056E7,1.8409882E8,5.709824E7,2.9943616E7,6.326336E6,5.7290065E6,3.0875584E7,1.2274176E7,0E0,4.521184E7,7.689459E7,3.5460096E7,7.736675E5,2.152448E7,3.3926144E7,1.707694E8,0E0,0E0,5.433112E6,7.840512E6,4.307296E6,1.3348004E7,1.0711768E7,6.5099455E6,2.8417456E7,0E0,1.6688384E7,4.234176E7,3.1935445E6,3.793581E7,5.0719225E6,1.131264E7,6.495E7,0E0,0E0,3.876352E6,0E0,1.383424E7,0E0,1.4297088E7,0E0,0E0,0E0,0E0,0E0,0E0,0E0,0E0,0E0,0E0,0E0,0E0,0E0,0E0,0E0,0E0,0E0,0E0,0E0,0E0,0E0,0E0,0E0,0E0,0E0,0E0,0E0,0E0,0E0,0E0,0E0,0E0,0E0,0E0,0E0],"parents":[2147483647,0,0,1,1,2,2,3,3,4,4,5,5,6,6,7,7,8,8,9,9,11,11,12,12,13,13,14,14,15,15,16,16,17,17,18,18,19,19,21,21,22,22,23,23,24,24,25,25,26,26,27,27,30,30,31,31,32,32,33,33,34,34,35,35,36,36,38,38,39,39,40,40,41,41,42,42,43,43,44,44,47,47,49,49,51,51],"right_children":[2,4,6,8,10,12,14,16,18,20,-1,22,24,26,28,30,32,34,36,38,-1,40,42,44,46,48,50,52,-1,-1,54,56,58,60,62,64,66,-1,68,70,72,74,76,78,80,-1,-1,82,-1,84,-1,86,-1,-1,-1,-1,-1,-1,-1,-1,-1,-1,-1,-1,-1,-1,-1,-1,-1,-1,-1,-1,-1,-1,-1,-1,-1,-1,-1,-1,-1,-1,-1,-1,-1,-1,-1],"split_conditions":[5.9030054E2,3.309536E1,1.0710115E3,3.4800793E2,4.603894E1,8.32254E2,1.1940139E3,1.4807955E1,5.393728E2,1.0604394E2,-6.104562E1,6.510622E2,7.00282E1,3.9624725E1,1.6865284E3,2.3859785E0,2.249532E1,5.446551E2,5.6753906E1,4.7339317E1,-6.6133885E0,6.9915234E2,8.203906E2,1.1212992E3,8.282876E2,1.1695421E3,6.0543236E1,1.628443E3,1.5654945E2,2.274383E1,5.7691166E1,7.795395E1,8.135664E1,4.1093234E2,4.5650485E2,5.5865852E1,8.6468315E1,-3.8435677E1,2.0242703E2,7.565982E1,7.4471277E2,5.5865852E1,8.7826196E2,1.1257657E3,9.958911E2,2.4026123E-1,1.1261213E1,1.0382672E3,1.2188171E2,4.0204693E1,3.9418335E1,1.5619625E3,1.3850121E0,-1.8882772E1,-8.398697E0,-2.061801E1,-7.9106994E0,-2.9362799E1,-1.9549524E1,8.867911E0,-6.9698367E0,1.0206652E1,-4.3068237E0,5.709752E0,-9.408993E0,2.2796154E1,-1.8968674E1,-4.9408306E1,-3.9404907E0,3.3308464E1,2.7247403E0,-1.9133192E1,1.4484594E0,5.4661343E1,2.1868898E1,5.1202173E0,-1.8732626E1,6.542098E1,7.928599E1,-2.4804613E1,4.8660416E1,1.0207503E2,2.8433142E1,5.761883E1,9.778135E1,1.352754E2,5.3927837E1],"split_indices":[19,8,19,9,10,19,9,8,2,32,0,9,32,32,45,31,8,46,32,31,0,15,0,20,0,0,32,46,0,0,32,32,32,11,23,32,32,0,0,32,0,32,2,45,5,0,0,9,0,32,0,20,0,0,0,0,0,0,0,0,0,0,0,0,0,0,0,0,0,0,0,0,0,0,0,0,0,0,0,0,0,0,0,0,0,0,0],"split_type":[0,0,0,0,0,0,0,0,0,0,0,0,0,0,0,0,0,0,0,0,0,0,0,0,0,0,0,0,0,0,0,0,0,0,0,0,0,0,0,0,0,0,0,0,0,0,0,0,0,0,0,0,0,0,0,0,0,0,0,0,0,0,0,0,0,0,0,0,0,0,0,0,0,0,0,0,0,0,0,0,0,0,0,0,0,0,0],"sum_hessian":[2.082E3,1.351E3,7.31E2,2.05E2,1.146E3,2.72E2,4.59E2,1.22E2,8.3E1,1.22E2,1.024E3,1.27E2,1.45E2,2.72E2,1.87E2,4.4E1,7.8E1,4.3E1,4E1,1.2E2,2E0,8.5E1,4.2E1,1.43E2,2E0,1.73E2,9.9E1,9.6E1,9.1E1,2E0,4.2E1,3.5E1,4.3E1,2.2E1,2.1E1,1.2E1,2.8E1,5.1E1,6.9E1,8.3E1,2E0,4E1,2E0,1.39E2,4E0,1E0,1E0,5.1E1,1.22E2,9.6E1,3E0,9.5E1,1E0,6E0,3.6E1,2.7E1,8E0,2.4E1,1.9E1,7E0,1.5E1,1.4E1,7E0,9E0,3E0,2.7E1,1E0,6.8E1,1E0,7.8E1,5E0,1E0,1E0,3.4E1,6E0,1E0,1E0,9.2E1,4.7E1,1E0,3E0,5E1,1E0,6E0,9E1,9.3E1,2E0],"tree_param":{"num_deleted":"0","num_feature":"64","num_nodes":"87","size_leaf_vector":"1"}},{"base_weights":[-8.195471E1,-5.125449E3,9.490219E3,-5.865352E3,-6.0538513E2,5.242082E3,1.2164856E4,-4.3981367E3,-6.0452168E1,6.4130725E2,-1.8850743E3,3.6902354E3,7.0318228E3,1.0759502E4,1.4138194E4,-4.4510474E3,-6.5692997E0,-8.3963264E1,1.6950486E3,-2.0395544E3,4.984076E1,2.976905E3,4.9164604E3,8.811437E1,6.579342E3,1.1492643E4,9.295804E3,1.4408539E4,8.6994255E1,-3.8804468E3,-4.9058438E3,6.95525E2,-5.0153482E2,1.8353003E3,-1.887383E1,-1.6178029E3,-2.4629536E1,-5.4189777E2,7.770537E0,3.1288752E3,5.5431067E2,5.184617E3,1.2515985E3,1.3400984E1,6.6164766E3,9.79428E1,1.2314544E4,9.543407E3,4.1562447E1,1.3114788E4,1.5348799E2,-2.100295E1,-3.9670036E1,-4.967362E1,-3.9207885E0,1.1988207E1,-1.15478525E1,-8.790123E0,5.392272E0,1.279776E1,2.4789331E1,-1.7561987E1,-1.2702689E1,-1.8610986E0,-9.825247E0,3.22906E1,-9.196275E0,1.5858682E1,-1.7548593E0,4.785915E1,7.815758E1,2.0972753E0,1.4596344E1,7.0007164E1,5.473429E1,1.23615326E2,3.596362E1,5.839039E1,9.844622E1,1.348929E2,8.151735E1],"categories":[],"categories_nodes":[],"categories_segments":[],"categories_sizes":[],"default_left":[0,0,0,0,0,0,0,0,0,0,0,0,0,0,0,0,0,0,0,0,0,0,0,0,0,0,0,0,0,0,0,0,0,0,0,0,0,0,0,0,0,0,0,0,0,0,0,0,0,0,0,0,0,0,0,0,0,0,0,0,0,0,0,0,0,0,0,0,0,0,0,0,0,0,0,0,0,0,0,0,0],"id":9,"left_children":[1,3,5,7,9,11,13,15,-1,17,19,21,23,25,27,29,-1,31,33,35,37,39,41,-1,43,45,47,49,-1,51,53,55,57,59,-1,61,-1,63,-1,65,67,69,71,-1,73,-1,75,77,-1,79,-1,-1,-1,-1,-1,-1,-1,-1,-1,-1,-1,-1,-1,-1,-1,-1,-1,-1,-1,-1,-1,-1,-1,-1,-1,-1,-1,-1,-1,-1,-1],"loss_changes":[1.0003073E11,4.5348086E9,8.0602235E9,2.8112077E8,3.0752166E8,7.461688E8,1.06256384E9,2.3007232E7,0E0,7.503858E7,2.8497696E7,1.1744448E8,4.5097984E7,1.7216922E8,1.3784269E8,1.443968E7,0E0,1.9552866E7,2.3561592E7,1.1729504E7,3.8636432E6,3.434547E7,4.657971E7,0E0,1.1756032E7,1.1529216E8,7.741235E7,4.288512E6,0E0,1.221376E6,1.69344E7,2.0940696E7,1.5795692E7,1.0772104E7,0E0,2.972E4,0E0,6.00991E5,0E0,4.028467E7,5.5480875E6,1.5046656E7,7.776065E5,0E0,7.798784E6,0E0,6.05184E5,3.959245E7,0E0,3.5016704E7,0E0,0E0,0E0,0E0,0E0,0E0,0E0,0E0,0E0,0E0,0E0,0E0,0E0,0E0,0E0,0E0,0E0,0E0,0E0,0E0,0E0,0E0,0E0,0E0,0E0,0E0,0E0,0E0,0E0,0E0,0E0],"parents":[2147483647,0,0,1,1,2,2,3,3,4,4,5,5,6,6,7,7,9,9,10,10,11,11,12,12,13,13,14,14,15,15,17,17,18,18,19,19,20,20,21,21,22,22,24,24,25,25,26,26,27,27,29,29,30,30,31,31,32,32,33,33,35,35,37,37,39,39,40,40,41,41,42,42,44,44,46,46,47,47,49,49],"right_children":[2,4,6,8,10,12,14,16,-1,18,20,22,24,26,28,30,-1,32,34,36,38,40,42,-1,44,46,48,50,-1,52,54,56,58,60,-1,62,-1,64,-1,66,68,70,72,-1,74,-1,76,78,-1,80,-1,-1,-1,-1,-1,-1,-1,-1,-1,-1,-1,-1,-1,-1,-1,-1,-1,-1,-1,-1,-1,-1,-1,-1,-1,-1,-1,-1,-1,-1,-1],"split_conditions":[5.824812E2,2.0319891E2,1.0076966E3,4.603894E1,7.367376E0,8.4669604E2,1.1920996E3,1.0604394E2,-6.0452168E1,5.393728E2,4.4447043E2,7.4656976E2,3.4976723E1,3.9624725E1,5.2973E1,5.0760544E1,-6.5692997E0,4.798641E0,6.289602E2,3.0748959E1,1.2618081E1,7.565982E1,6.5196144E1,8.811437E1,3.1563145E1,1.0406775E3,5.976934E1,1.4360497E3,8.6994255E1,3.2244053E1,1.9376785E2,4.1846283E2,5.943805E1,5.543612E1,-1.887383E1,6.3110706E1,-2.4629536E1,4.733847E2,7.770537E0,7.151716E2,6.325139E2,6.248788E1,7.8392206E2,1.3400984E1,9.637268E2,9.79428E1,1.3423937E3,4.0543427E1,4.1562447E1,1.4492905E3,1.5348799E2,-2.100295E1,-3.9670036E1,-4.967362E1,-3.9207885E0,1.1988207E1,-1.15478525E1,-8.790123E0,5.392272E0,1.279776E1,2.4789331E1,-1.7561987E1,-1.2702689E1,-1.8610986E0,-9.825247E0,3.22906E1,-9.196275E0,1.5858682E1,-1.7548593E0,4.785915E1,7.815758E1,2.0972753E0,1.4596344E1,7.0007164E1,5.473429E1,1.23615326E2,3.596362E1,5.839039E1,9.844622E1,1.348929E2,8.151735E1],"split_indices":[0,11,51,10,8,39,9,32,0,2,0,39,52,32,52,57,0,57,2,57,6,32,32,0,32,9,52,59,0,6,0,9,52,52,0,52,0,0,0,11,0,32,0,0,5,0,0,32,0,39,0,0,0,0,0,0,0,0,0,0,0,0,0,0,0,0,0,0,0,0,0,0,0,0,0,0,0,0,0,0,0],"split_type":[0,0,0,0,0,0,0,0,0,0,0,0,0,0,0,0,0,0,0,0,0,0,0,0,0,0,0,0,0,0,0,0,0,0,0,0,0,0,0,0,0,0,0,0,0,0,0,0,0,0,0,0,0,0,0,0,0,0,0,0,0,0,0,0,0,0,0,0,0,0,0,0,0,0,0,0,0,0,0,0,0],"sum_hessian":[2.07E3,1.356E3,7.14E2,1.165E3,1.91E2,2.77E2,4.37E2,1.3E2,1.035E3,9.7E1,9.4E1,1.5E2,1.27E2,2.59E2,1.78E2,1.28E2,2E0,5.8E1,3.9E1,8.7E1,7E0,9.7E1,5.3E1,2.2E1,1.05E2,1.68E2,9.1E1,1.68E2,1E1,6.1E1,6.7E1,2E1,3.8E1,3.8E1,1E0,4.6E1,4.1E1,4E0,3E0,9.1E1,6E0,4.9E1,4E0,1E0,1.04E2,5.9E1,1.09E2,8.6E1,5E0,7.7E1,9.1E1,4E0,5.7E1,6.6E1,1E0,1.6E1,4E0,2.8E1,1E1,2.2E1,1.6E1,3E1,1.6E1,3E0,1E0,8.9E1,2E0,2E0,4E0,4.5E1,4E0,1E0,3E0,7.4E1,3E1,1.08E2,1E0,8E0,7.8E1,7E1,7E0],"tree_param":{"num_deleted":"0","num_feature":"64","num_nodes":"81","size_leaf_vector":"1"}},{"base_weights":[-4.1178272E1,-5.0824326E3,9.526687E3,-7.066832E2,-5.838218E3,5.615308E3,1.2182415E4,-1.8025803E3,7.7972076E2,-4.4245E3,-5.9975445E1,3.6487488E3,7.0133643E3,1.06187E4,1.4558217E2,-1.2185481E3,-2.6969744E1,-8.6286385E1,1.5346462E3,-4.4828223E3,-1.5978679E3,3.8578396E3,1.393173E3,8.0510425E3,6.3683022E3,1.12872765E2,9.378854E3,1.8672468E1,-1.3797747E3,-1.5915597E3,7.4434135E1,6.125371E2,1.9610687E3,-3.6920994E1,-4.7849426E1,-5.636613E0,-2.3502438E1,3.3875557E3,4.9773696E3,-1.2481673E1,2.0462577E3,1.2909814E2,7.667528E1,6.7818687E3,4.707446E3,4.0039785E3,9.689241E3,-1.7775707E1,-7.338029E0,-1.8692135E1,-3.7929907E0,6.492919E0,-1.5406123E0,1.0441813E1,-9.434408E0,2.1801052E1,-6.2453365E-1,3.5160057E1,-1.1669562E1,5.5655766E1,1.5989098E1,3.121137E1,3.4715068E0,6.889063E1,1.5555156E1,2.812851E1,6.525519E1,6.823254E1,1.8370837E0,9.7482E1,2.1914673E1],"categories":[],"categories_nodes":[],"categories_segments":[],"categories_sizes":[],"default_left":[0,0,0,0,0,0,0,0,0,0,0,0,0,0,0,0,0,0,0,0,0,0,0,0,0,0,0,0,0,0,0,0,0,0,0,0,0,0,0,0,0,0,0,0,0,0,0,0,0,0,0,0,0,0,0,0,0,0,0,0,0,0,0,0,0,0,0,0,0,0,0],"id":10,"left_children":[1,3,5,7,9,11,13,15,17,19,-1,21,23,25,-1,27,-1,29,31,33,35,37,39,41,43,-1,45,-1,47,49,51,53,55,-1,-1,-1,-1,57,59,-1,61,-1,-1,63,65,67,69,-1,-1,-1,-1,-1,-1,-1,-1,-1,-1,-1,-1,-1,-1,-1,-1,-1,-1,-1,-1,-1,-1,-1,-1],"loss_changes":[9.994112E10,4.4836413E9,7.3586975E9,3.288236E8,2.3407002E8,7.744737E8,1.4243185E9,5.7306784E7,5.6356704E7,1.2784384E7,0E0,5.2634624E7,6.185165E7,1.0966016E8,0E0,3.8397256E7,0E0,1.0037527E7,1.6886344E7,1.052288E7,1.787707E6,4.2106496E7,2.3254298E7,1.4681344E7,4.2944E7,0E0,1.2302899E8,0E0,1.6426184E7,6.37365E5,5.09142E6,1.1731186E7,1.3876136E7,0E0,0E0,0E0,0E0,5.20752E7,5.270547E7,0E0,1.7179852E7,0E0,0E0,3.690419E7,6.775744E7,7.413926E7,1.886464E7,0E0,0E0,0E0,0E0,0E0,0E0,0E0,0E0,0E0,0E0,0E0,0E0,0E0,0E0,0E0,0E0,0E0,0E0,0E0,0E0,0E0,0E0,0E0,0E0],"parents":[2147483647,0,0,1,1,2,2,3,3,4,4,5,5,6,6,7,7,8,8,9,9,11,11,12,12,13,13,15,15,17,17,18,18,19,19,20,20,21,21,22,22,23,23,24,24,26,26,28,28,29,29,30,30,31,31,32,32,37,37,38,38,40,40,43,43,44,44,45,45,46,46],"right_children":[2,4,6,8,10,12,14,16,18,20,-1,22,24,26,-1,28,-1,30,32,34,36,38,40,42,44,-1,46,-1,48,50,52,54,56,-1,-1,-1,-1,58,60,-1,62,-1,-1,64,66,68,70,-1,-1,-1,-1,-1,-1,-1,-1,-1,-1,-1,-1,-1,-1,-1,-1,-1,-1,-1,-1,-1,-1,-1,-1],"split_conditions":[5.9030054E2,3.35348E1,1.1520059E3,3.4800793E2,6.66484E1,8.605006E2,1.2874363E3,2.249532E1,5.393728E2,1.00795006E2,-5.9975445E1,6.9475464E1,3.6952816E1,3.9624725E1,1.4558217E2,2.3859785E0,-2.6969744E1,5.7691166E1,5.6753906E1,4.877053E1,6.572209E1,6.510622E2,7.129428E1,1.6834444E1,9.637268E2,1.12872765E2,4.0204693E1,1.8672468E1,3.8894507E2,4.9832697E2,4.798641E0,5.5865852E1,3.5416148E0,-3.6920994E1,-4.7849426E1,-5.636613E0,-2.3502438E1,6.9915234E2,6.9135126E2,-1.2481673E1,7.473025E1,1.2909814E2,7.667528E1,6.881818E1,9.958911E2,1.2382585E3,1.3565847E3,-1.7775707E1,-7.338029E0,-1.8692135E1,-3.7929907E0,6.492919E0,-1.5406123E0,1.0441813E1,-9.434408E0,2.1801052E1,-6.2453365E-1,3.5160057E1,-1.1669562E1,5.5655766E1,1.5989098E1,3.121137E1,3.4715068E0,6.889063E1,1.5555156E1,2.812851E1,6.525519E1,6.823254E1,1.8370837E0,9.7482E1,2.1914673E1],"split_indices":[19,36,20,9,24,2,15,8,2,32,0,32,32,32,0,31,0,32,32,6,24,9,32,32,5,0,32,0,2,0,57,32,6,0,0,0,0,15,9,0,32,0,0,32,5,0,0,0,0,0,0,0,0,0,0,0,0,0,0,0,0,0,0,0,0,0,0,0,0,0,0],"split_type":[0,0,0,0,0,0,0,0,0,0,0,0,0,0,0,0,0,0,0,0,0,0,0,0,0,0,0,0,0,0,0,0,0,0,0,0,0,0,0,0,0,0,0,0,0,0,0,0,0,0,0,0,0,0,0,0,0,0,0,0,0,0,0,0,0,0,0,0,0,0,0],"sum_hessian":[2.07E3,1.356E3,7.14E2,2E2,1.156E3,2.9E2,4.24E2,1.15E2,8.5E1,1.2E2,1.036E3,1.22E2,1.68E2,2.59E2,1.65E2,7.1E1,4.4E1,4E1,4.5E1,1.17E2,3E0,1.11E2,1.1E1,6E1,1.08E2,1.63E2,9.6E1,3E0,6.8E1,3E0,3.7E1,1.5E1,3E1,3.6E1,8.1E1,2E0,1E0,8.1E1,3E1,2E0,9E0,2E0,5.8E1,8.4E1,2.4E1,6E0,9E1,4.1E1,2.7E1,2E0,1E0,1E1,2.7E1,1.2E1,3E0,2.7E1,3E0,7.9E1,2E0,2.5E1,5E0,5E0,4E0,8.2E1,2E0,1.3E1,1.1E1,3E0,3E0,8.9E1,1E0],"tree_param":{"num_deleted":"0","num_feature":"64","num_nodes":"71","size_leaf_vector":"1"}},{"base_weights":[-1.5704828E2,-5.0664624E3,9.220705E3,-8.498956E2,-5.7842163E3,5.129457E3,1.18450205E4,-1.7245078E3,7.8652545E2,-4.4366E3,-5.918093E1,3.440263E3,6.3386216E3,1.0111524E4,1.3654549E4,-2.4964763E3,-1.00586206E3,1.6924461E2,1.1701846E3,-4.501844E3,-6.3067966E0,3.5925842E3,-2.7220133E1,6.4289536E3,1.1632743E1,1.0300984E4,5.4892217E3,1.3876827E4,7.1731704E3,-2.6545784E1,-1.8760216E3,1.2135731E3,-1.161113E3,-1.5812655E3,4.4255646E2,1.3670787E3,-1.9107643E1,-3.6501846E3,-4.77169E3,3.906899E3,1.423226E3,-1.1210014E1,4.1573642E2,6.7607314E3,5.10758E3,1.2221708E4,9.705866E3,2.1222751E3,7.110009E1,1.2764992E4,1.5106258E2,2.1520507E-1,8.064436E1,-1.9945879E1,-6.9737177E0,-2.8493066E0,1.6594316E1,-1.7829428E1,-8.0150385E0,-1.8567522E1,-3.7740257E0,5.4470677E0,-1.00452585E1,1.5422243E1,-2.0241454E0,-3.7493427E1,-3.8730004E0,-1.8697243E1,-4.8234554E1,3.4127544E1,6.0896687E1,1.773297E1,-6.8484745E0,1.0836358E1,-3.9074185E0,6.359463E1,8.2463234E1,6.209103E1,2.3871086E1,1.2360885E2,2.9097902E1,9.8370224E1,4.5032715E1,3.4290665E1,1.0805843E0,1.303845E2,8.186694E1],"categories":[],"categories_nodes":[],"categories_segments":[],"categories_sizes":[],"default_left":[0,0,0,0,0,0,0,0,0,0,0,0,0,0,0,0,0,0,0,0,0,0,0,0,0,0,0,0,0,0,0,0,0,0,0,0,0,0,0,0,0,0,0,0,0,0,0,0,0,0,0,0,0,0,0,0,0,0,0,0,0,0,0,0,0,0,0,0,0,0,0,0,0,0,0,0,0,0,0,0,0,0,0,0,0,0,0],"id":11,"left_children":[1,3,5,7,9,11,13,15,17,19,-1,21,23,25,27,29,31,33,35,37,-1,39,41,43,-1,45,47,49,51,-1,53,55,57,59,61,63,-1,65,67,69,71,-1,73,75,77,79,81,83,-1,85,-1,-1,-1,-1,-1,-1,-1,-1,-1,-1,-1,-1,-1,-1,-1,-1,-1,-1,-1,-1,-1,-1,-1,-1,-1,-1,-1,-1,-1,-1,-1,-1,-1,-1,-1,-1,-1],"loss_changes":[9.5394054E10,4.111065E9,7.583793E9,2.8617184E8,1.8338611E8,5.500974E8,1.2201656E9,6.960928E7,1.6379728E7,2.42272E7,0E0,6.2950144E7,6.825626E7,1.404969E8,2.0156006E8,1.101856E6,2.5184392E7,1.4095982E7,2.8696868E7,7.172608E6,0E0,7.217165E7,3.373027E6,3.5175424E7,0E0,1.2713574E8,4.493875E7,8.192E7,5.719267E7,0E0,8.45E5,3.813427E6,1.3105984E7,6.2585E5,4.242671E6,1.1582648E7,0E0,8.254112E6,2.69888E6,8.599936E7,1.3022048E7,0E0,3.116654E6,2.1476352E7,9.305798E7,2.494464E7,7.10185E7,1.2790266E7,0E0,3.3480704E7,0E0,0E0,0E0,0E0,0E0,0E0,0E0,0E0,0E0,0E0,0E0,0E0,0E0,0E0,0E0,0E0,0E0,0E0,0E0,0E0,0E0,0E0,0E0,0E0,0E0,0E0,0E0,0E0,0E0,0E0,0E0,0E0,0E0,0E0,0E0,0E0,0E0],"parents":[2147483647,0,0,1,1,2,2,3,3,4,4,5,5,6,6,7,7,8,8,9,9,11,11,12,12,13,13,14,14,15,15,16,16,17,17,18,18,19,19,21,21,22,22,23,23,25,25,26,26,27,27,28,28,30,30,31,31,32,32,33,33,34,34,35,35,37,37,38,38,39,39,40,40,42,42,43,43,44,44,45,45,46,46,47,47,49,49],"right_children":[2,4,6,8,10,12,14,16,18,20,-1,22,24,26,28,30,32,34,36,38,-1,40,42,44,-1,46,48,50,52,-1,54,56,58,60,62,64,-1,66,68,70,72,-1,74,76,78,80,82,84,-1,86,-1,-1,-1,-1,-1,-1,-1,-1,-1,-1,-1,-1,-1,-1,-1,-1,-1,-1,-1,-1,-1,-1,-1,-1,-1,-1,-1,-1,-1,-1,-1,-1,-1,-1,-1,-1,-1],"split_conditions":[6.0068134E2,3.35348E1,1.1368069E3,5.274368E2,5.200654E1,9.2315857E2,1.305558E3,3.112695E2,5.393728E2,1.0604394E2,-5.918093E1,7.4801263E2,7.00282E1,1.3871339E3,5.329251E1,2.1726088E2,3.5936868E2,5.7691166E1,8.547662E1,2.3427916E0,-6.3067966E0,6.80156E1,3.5806423E1,1.01139294E3,1.1632743E1,3.046434E1,1.3972207E3,1.4360497E3,4.9008125E1,-2.6545784E1,7.795395E1,2.960421E2,3.981116E2,4.6489642E2,4.613884E2,4.828992E2,-1.9107643E1,5.110432E1,4.238407E1,8.215317E2,8.2349066E2,-1.1210014E1,4.5438347E1,1.1257657E3,4.2302307E1,1.3647555E3,5.976934E1,1.3849757E3,7.110009E1,1.4492905E3,1.5106258E2,2.1520507E-1,8.064436E1,-1.9945879E1,-6.9737177E0,-2.8493066E0,1.6594316E1,-1.7829428E1,-8.0150385E0,-1.8567522E1,-3.7740257E0,5.4470677E0,-1.00452585E1,1.5422243E1,-2.0241454E0,-3.7493427E1,-3.8730004E0,-1.8697243E1,-4.8234554E1,3.4127544E1,6.0896687E1,1.773297E1,-6.8484745E0,1.0836358E1,-3.9074185E0,6.359463E1,8.2463234E1,6.209103E1,2.3871086E1,1.2360885E2,2.9097902E1,9.8370224E1,4.5032715E1,3.4290665E1,1.0805843E0,1.303845E2,8.186694E1],"split_indices":[38,36,2,45,47,45,63,39,2,32,0,23,32,2,52,9,2,32,32,47,0,32,32,39,0,32,2,59,32,0,32,23,20,23,23,9,0,6,6,20,2,0,32,45,32,2,52,20,0,39,0,0,0,0,0,0,0,0,0,0,0,0,0,0,0,0,0,0,0,0,0,0,0,0,0,0,0,0,0,0,0,0,0,0,0,0,0],"split_type":[0,0,0,0,0,0,0,0,0,0,0,0,0,0,0,0,0,0,0,0,0,0,0,0,0,0,0,0,0,0,0,0,0,0,0,0,0,0,0,0,0,0,0,0,0,0,0,0,0,0,0,0,0,0,0,0,0,0,0,0,0,0,0,0,0,0,0,0,0,0,0,0,0,0,0,0,0,0,0,0,0,0,0,0,0,0,0],"sum_hessian":[2.07E3,1.359E3,7.11E2,1.98E2,1.161E3,2.79E2,4.32E2,1.29E2,6.9E1,1.08E2,1.053E3,1.18E2,1.61E2,2.24E2,2.08E2,6.1E1,6.8E1,2.7E1,4.2E1,1.06E2,2E0,1.13E2,5E0,1.58E2,3E0,2.14E2,1E1,2E2,8E0,4.6E1,1.5E1,4E0,6.4E1,3E0,2.4E1,4E1,2E0,2.9E1,7.7E1,9.8E1,1.5E1,1E0,4E0,1.23E2,3.5E1,4.6E1,1.68E2,4E0,6E0,1.11E2,8.9E1,1E0,7E0,1.3E1,2E0,1E0,3E0,2.2E1,4.2E1,2E0,1E0,2.3E1,1E0,3.6E1,4E0,2.8E1,1E0,2E0,7.5E1,8.2E1,1.6E1,1.3E1,2E0,2E0,2E0,1.01E2,2.2E1,2.4E1,1.1E1,4.5E1,1E0,1.63E2,5E0,2E0,2E0,1.03E2,8E0],"tree_param":{"num_deleted":"0","num_feature":"64","num_nodes":"87","size_leaf_vector":"1"}},{"base_weights":[1.18717384E2,-4.981925E3,9.216633E3,-5.965047E2,-5.6995747E3,5.2449854E3,1.1631049E4,4.7699158E2,-1.9732228E3,-4.2180044E3,-5.8588406E1,3.4863225E3,6.636529E3,1.0363492E4,1.3851746E4,-1.686711E2,1.520465E3,-2.43854E3,-1.5459341E3,-4.2760273E3,-6.264753E0,3.8065671E3,1.3177961E3,6.7351826E3,1.1545497E1,1.1088208E4,8.869733E3,1.4089134E2,9.225904E1,-2.5793945E2,1.8217003E3,6.768665E2,2.3724E3,-2.6920078E1,-1.4596295E3,-1.6097654E3,6.6323533E0,-3.570482E3,-4.658427E1,3.9675173E3,-3.9907803E2,-1.7441829E2,1.9051416E3,7.07535E3,5.2631904E3,9.503477E1,1.1757353E2,9.008402E3,1.2446266E3,3.0778136E0,-6.429785E0,2.5146564E1,2.1789403E0,8.282632E0,-1.2512321E1,2.8043026E1,-5.6286865E-1,1.1257558E1,-1.8719786E1,-1.897976E0,-1.6377237E1,-3.6076763E1,-9.855627E0,3.1933847E1,4.8186665E1,6.9990697E0,-8.48801E0,7.717876E0,-8.404681E0,3.2152115E1,6.8444633E0,1.1513365E2,6.868455E1,2.293177E1,6.1218674E1,9.109577E1,2.6668364E1,-2.732478E0,2.1401876E1],"categories":[],"categories_nodes":[],"categories_segments":[],"categories_sizes":[],"default_left":[0,0,0,0,0,0,0,0,0,0,0,0,0,0,0,0,0,0,0,0,0,0,0,0,0,0,0,0,0,0,0,0,0,0,0,0,0,0,0,0,0,0,0,0,0,0,0,0,0,0,0,0,0,0,0,0,0,0,0,0,0,0,0,0,0,0,0,0,0,0,0,0,0,0,0,0,0,0,0],"id":12,"left_children":[1,3,5,7,9,11,13,15,17,19,-1,21,23,25,27,29,31,33,35,37,-1,39,41,43,-1,45,47,-1,-1,49,51,53,55,-1,57,59,-1,61,-1,63,65,67,69,71,73,-1,-1,75,77,-1,-1,-1,-1,-1,-1,-1,-1,-1,-1,-1,-1,-1,-1,-1,-1,-1,-1,-1,-1,-1,-1,-1,-1,-1,-1,-1,-1,-1,-1],"loss_changes":[9.6754385E10,4.201257E9,7.1213097E9,2.8026464E8,2.461737E8,6.743306E8,1.165353E9,7.234575E7,1.2732608E7,2.1286016E7,0E0,8.387443E7,7.767347E7,2.2641869E8,5.230592E7,1.237426E7,2.7860528E7,5.499312E6,7.554304E6,1.385472E7,0E0,7.671923E7,1.6108308E7,4.0372736E7,0E0,9.822618E7,9.769677E7,0E0,0E0,1.4356497E7,2.786174E6,7.458321E6,2.1136984E7,0E0,1.2768202E7,1.475656E6,0E0,6.74752E5,0E0,5.5114624E7,3.065276E6,4.4299845E6,1.8588916E7,3.3860096E7,7.012077E7,0E0,0E0,4.050893E7,4.6628495E6,0E0,0E0,0E0,0E0,0E0,0E0,0E0,0E0,0E0,0E0,0E0,0E0,0E0,0E0,0E0,0E0,0E0,0E0,0E0,0E0,0E0,0E0,0E0,0E0,0E0,0E0,0E0,0E0,0E0,0E0],"parents":[2147483647,0,0,1,1,2,2,3,3,4,4,5,5,6,6,7,7,8,8,9,9,11,11,12,12,13,13,14,14,15,15,16,16,17,17,18,18,19,19,21,21,22,22,23,23,25,25,26,26,29,29,30,30,31,31,32,32,34,34,35,35,37,37,39,39,40,40,41,41,42,42,43,43,44,44,47,47,48,48],"right_children":[2,4,6,8,10,12,14,16,18,20,-1,22,24,26,28,30,32,34,36,38,-1,40,42,44,-1,46,48,-1,-1,50,52,54,56,-1,58,60,-1,62,-1,64,66,68,70,72,74,-1,-1,76,78,-1,-1,-1,-1,-1,-1,-1,-1,-1,-1,-1,-1,-1,-1,-1,-1,-1,-1,-1,-1,-1,-1,-1,-1,-1,-1,-1,-1,-1,-1],"split_conditions":[5.9564197E2,3.813704E1,1.0710115E3,1.5457267E1,4.603894E1,7.5663196E2,1.361259E3,5.393728E2,2.139445E2,8.565012E1,-5.8588406E1,6.1654644E1,6.554863E1,4.4267357E1,5.2973E1,1.4571111E1,5.3503387E1,6.806299E1,4.3460406E2,4.4693684E1,-6.264753E0,8.0166266E2,6.410536E1,1.172506E3,1.1545497E1,1.1719697E3,1.3538804E3,1.4089134E2,9.225904E1,6.9582385E-1,3.6339987E2,5.824812E2,3.5416148E0,-2.6920078E1,2.4524733E1,2.757342E2,6.6323533E0,7.573419E1,-4.658427E1,7.029717E2,8.5193506E2,6.509814E2,6.7416885E1,2.599137E1,9.791852E2,9.503477E1,1.1757353E2,6.2117886E1,1.449286E3,3.0778136E0,-6.429785E0,2.5146564E1,2.1789403E0,8.282632E0,-1.2512321E1,2.8043026E1,-5.6286865E-1,1.1257558E1,-1.8719786E1,-1.897976E0,-1.6377237E1,-3.6076763E1,-9.855627E0,3.1933847E1,4.8186665E1,6.9990697E0,-8.48801E0,7.717876E0,-8.404681E0,3.2152115E1,6.8444633E0,1.1513365E2,6.868455E1,2.293177E1,6.1218674E1,9.109577E1,2.6668364E1,-2.732478E0,2.1401876E1],"split_indices":[61,24,19,37,10,5,0,2,9,52,0,52,52,52,52,6,52,52,0,37,0,19,52,45,0,0,0,0,0,36,0,0,6,0,49,0,0,52,0,39,2,0,52,52,5,0,0,52,2,0,0,0,0,0,0,0,0,0,0,0,0,0,0,0,0,0,0,0,0,0,0,0,0,0,0,0,0,0,0],"split_type":[0,0,0,0,0,0,0,0,0,0,0,0,0,0,0,0,0,0,0,0,0,0,0,0,0,0,0,0,0,0,0,0,0,0,0,0,0,0,0,0,0,0,0,0,0,0,0,0,0,0,0,0,0,0,0,0,0,0,0,0,0,0,0,0,0,0,0,0,0,0,0,0,0,0,0,0,0,0,0],"sum_hessian":[2.083E3,1.335E3,7.48E2,1.88E2,1.147E3,2.84E2,4.64E2,1.06E2,8.2E1,1.14E2,1.033E3,1.27E2,1.57E2,2.99E2,1.65E2,6.6E1,4E1,3.7E1,4.5E1,1.12E2,2E0,1.1E2,1.7E1,1.54E2,3E0,1.97E2,1.02E2,1.55E2,1E1,6.4E1,2E0,2.1E1,1.9E1,2.8E1,9E0,4.4E1,1E0,4.3E1,6.9E1,1.06E2,4E0,5E0,1.2E1,1.22E2,3.2E1,6.3E1,1.34E2,1E2,2E0,2.6E1,3.8E1,1E0,1E0,2E1,1E0,1.6E1,3E0,1E0,8E0,1E0,4.3E1,4.2E1,1E0,5.8E1,4.8E1,1E0,3E0,2E0,3E0,5E0,7E0,3E0,1.19E2,8E0,2.4E1,9.8E1,2E0,1E0,1E0],"tree_param":{"num_deleted":"0","num_feature":"64","num_nodes":"79","size_leaf_vector":"1"}},{"base_weights":[7.6570435E1,-4.905642E3,9.199302E3,-5.637048E3,-5.518831E2,5.315446E3,1.1634252E4,-4.0566294E3,-5.798752E1,3.213281E2,-2.163755E3,3.5981096E3,6.796001E3,1.0408995E4,1.3619921E4,-4.0869246E3,-3.6207128E0,-3.6493594E2,1.2388229E3,-1.7549204E3,-2.489772E3,2.6895154E3,4.3557754E3,6.8263193E3,1.0938259E1,1.0532725E4,4.808263E3,1.3876251E2,9.088562E1,-3.511613E1,-4.445561E1,8.43883E2,-5.8939453E2,1.388639E3,-1.01849414E3,-1.8702645E3,1.0257175E1,-2.7355635E1,-1.8444818E3,2.952219E3,-3.4199048E2,4.4731357E3,-1.988411E1,6.847629E1,1.8042915E1,1.2135457E4,1.0055025E4,1.2705815E1,5.1321346E1,1.1752833E1,-1.40076E1,-1.5637025E1,-3.7605903E0,9.282167E0,1.8133608E1,-2.0851274E1,1.0907028E1,-2.0586433E1,-1.2311292E1,1.1201272E1,-2.1848764E1,6.7029185E0,3.0624956E1,-1.1086217E1,7.941813E0,4.5680683E1,7.9863687E0,8.962074E1,1.310783E2,1.01080826E2,2.8478266E1],"categories":[],"categories_nodes":[],"categories_segments":[],"categories_sizes":[],"default_left":[0,0,0,0,0,0,0,0,0,0,0,0,0,0,0,0,0,0,0,0,0,0,0,0,0,0,0,0,0,0,0,0,0,0,0,0,0,0,0,0,0,0,0,0,0,0,0,0,0,0,0,0,0,0,0,0,0,0,0,0,0,0,0,0,0,0,0,0,0,0,0],"id":13,"left_children":[1,3,5,7,9,11,13,15,-1,17,19,21,23,25,27,29,-1,31,33,35,37,39,41,43,-1,45,47,-1,-1,-1,-1,49,51,53,55,57,-1,-1,59,61,63,65,-1,-1,-1,67,69,-1,-1,-1,-1,-1,-1,-1,-1,-1,-1,-1,-1,-1,-1,-1,-1,-1,-1,-1,-1,-1,-1,-1,-1],"loss_changes":[9.522033E10,4.3117015E9,6.9363343E9,2.7292877E8,2.7656614E8,7.0527744E8,9.627935E8,1.0944128E7,0E0,8.104648E7,4.827456E6,8.122061E7,1.8983936E7,1.4685389E8,7.134208E7,7.085056E6,0E0,2.0575786E7,2.0014368E7,1.2823184E7,6.6416E5,5.197843E7,6.250253E7,3.91168E6,0E0,9.082061E7,2.645248E6,0E0,0E0,0E0,0E0,1.0572793E7,1.2506786E7,8.48548E6,1.1273213E7,1.438736E6,0E0,0E0,1.556612E7,1.2794208E7,6.1065955E6,2.1118592E7,0E0,0E0,0E0,6.458368E7,5.5341056E7,0E0,0E0,0E0,0E0,0E0,0E0,0E0,0E0,0E0,0E0,0E0,0E0,0E0,0E0,0E0,0E0,0E0,0E0,0E0,0E0,0E0,0E0,0E0,0E0],"parents":[2147483647,0,0,1,1,2,2,3,3,4,4,5,5,6,6,7,7,9,9,10,10,11,11,12,12,13,13,14,14,15,15,17,17,18,18,19,19,20,20,21,21,22,22,23,23,25,25,26,26,31,31,32,32,33,33,34,34,35,35,38,38,39,39,40,40,41,41,45,45,46,46],"right_children":[2,4,6,8,10,12,14,16,-1,18,20,22,24,26,28,30,-1,32,34,36,38,40,42,44,-1,46,48,-1,-1,-1,-1,50,52,54,56,58,-1,-1,60,62,64,66,-1,-1,-1,68,70,-1,-1,-1,-1,-1,-1,-1,-1,-1,-1,-1,-1,-1,-1,-1,-1,-1,-1,-1,-1,-1,-1,-1,-1],"split_conditions":[6.820709E2,2.0319891E2,1.1237797E3,5.764612E1,1.4132387E1,8.4128046E2,1.2874363E3,9.956694E1,-5.798752E1,5.587979E2,2.249532E1,6.646639E2,7.00282E1,5.976934E1,5.2973E1,4.148317E1,-3.6207128E0,4.798641E0,6.289602E2,8.46935E1,2.8404089E1,7.0913043E2,7.924287E2,1.1368069E3,1.0938259E1,2.847593E1,1.106344E3,1.3876251E2,9.088562E1,-3.511613E1,-4.445561E1,4.814953E2,6.155329E1,6.0543236E1,5.9030054E2,6.410536E1,1.0257175E1,-2.7355635E1,3.2858555E1,4.7851578E1,5.2945515E1,7.473025E1,-1.988411E1,6.847629E1,1.8042915E1,1.1695421E3,1.3565847E3,1.2705815E1,5.1321346E1,1.1752833E1,-1.40076E1,-1.5637025E1,-3.7605903E0,9.282167E0,1.8133608E1,-2.0851274E1,1.0907028E1,-2.0586433E1,-1.2311292E1,1.1201272E1,-2.1848764E1,6.7029185E0,3.0624956E1,-1.1086217E1,7.941813E0,4.5680683E1,7.9863687E0,8.962074E1,1.310783E2,1.01080826E2,2.8478266E1],"split_indices":[45,11,48,57,36,61,15,32,0,46,8,15,32,52,52,36,0,57,2,32,8,19,11,2,0,32,0,0,0,0,0,0,32,32,19,52,0,0,31,32,32,32,0,0,0,0,0,0,0,0,0,0,0,0,0,0,0,0,0,0,0,0,0,0,0,0,0,0,0,0,0],"split_type":[0,0,0,0,0,0,0,0,0,0,0,0,0,0,0,0,0,0,0,0,0,0,0,0,0,0,0,0,0,0,0,0,0,0,0,0,0,0,0,0,0,0,0,0,0,0,0,0,0,0,0,0,0,0,0,0,0,0,0,0,0,0,0,0,0,0,0,0,0,0,0],"sum_hessian":[2.093E3,1.354E3,7.39E2,1.159E3,1.95E2,2.86E2,4.53E2,1.1E2,1.049E3,1.27E2,6.8E1,1.34E2,1.52E2,2.84E2,1.69E2,1.09E2,1E0,7.3E1,5.4E1,3.3E1,3.5E1,6.3E1,7.1E1,1.51E2,1E0,2.77E2,7E0,1.58E2,1.1E1,4.6E1,6.3E1,1.1E1,6.2E1,5.1E1,3E0,3.2E1,1E0,2.3E1,1.2E1,5.8E1,5E0,7E1,1E0,1.5E2,1E0,5.8E1,2.19E2,1E0,6E0,1E1,1E0,1E1,5.2E1,2.6E1,2.5E1,2E0,1E0,2.3E1,9E0,1E0,1.1E1,3E0,5.5E1,3E0,2E0,6.8E1,2E0,1.6E1,4.2E1,2.17E2,2E0],"tree_param":{"num_deleted":"0","num_feature":"64","num_nodes":"71","size_leaf_vector":"1"}},{"base_weights":[1.1645418E2,-4.8431787E3,9.189941E3,-7.6141235E2,-5.5930996E3,5.231134E3,1.155219E4,-1.7110658E3,6.6643945E2,-4.231704E3,-5.7443695E1,3.6201843E3,6.6628125E3,1.0013159E4,1.3351345E4,-3.7635443E2,-2.0345112E3,-4.2612587E1,1.4284127E3,-4.289571E3,-5.836406E0,3.9196797E3,1.3459993E3,1.01063126E2,6.389955E3,1.147828E4,9.401357E3,1.2280546E4,1.4781573E2,1.8358263E1,-7.447183E2,-2.3846165E1,-1.5564567E3,-4.150192E2,6.583131E2,8.006273E2,2.1131838E3,-3.5727703E1,-4.5800625E3,3.1827964E3,4.48018E3,-8.673517E2,1.8822424E3,6.7278765E3,5.3938516E3,1.1554822E2,3.0984482E1,9.527596E3,4.84826E3,1.2430763E2,4.591207E3,-1.1190183E1,5.0230136E0,-6.2145734E0,-1.7369444E1,-5.3230125E-1,-1.0350884E1,9.415716E0,1.5961336E0,1.1697856E1,-2.1027553E0,2.526772E1,-6.9464964E-1,-4.6295433E1,-3.6026099E0,7.3137784E0,3.5932304E1,1.0472281E1,4.5740295E1,1.6025634E0,-1.2633065E1,2.9073599E1,4.4178805E0,6.75989E1,1.79527E1,4.368087E1,8.441699E1,9.583211E1,3.0889744E1,1.2642285E1,5.2348934E1,1.2409626E1,5.2943012E1],"categories":[],"categories_nodes":[],"categories_segments":[],"categories_sizes":[],"default_left":[0,0,0,0,0,0,0,0,0,0,0,0,0,0,0,0,0,0,0,0,0,0,0,0,0,0,0,0,0,0,0,0,0,0,0,0,0,0,0,0,0,0,0,0,0,0,0,0,0,0,0,0,0,0,0,0,0,0,0,0,0,0,0,0,0,0,0,0,0,0,0,0,0,0,0,0,0,0,0,0,0,0,0],"id":14,"left_children":[1,3,5,7,9,11,13,15,17,19,-1,21,23,25,27,29,31,33,35,37,-1,39,41,-1,43,45,47,49,-1,-1,51,-1,53,55,57,59,61,-1,63,65,67,69,71,73,75,-1,-1,77,79,-1,81,-1,-1,-1,-1,-1,-1,-1,-1,-1,-1,-1,-1,-1,-1,-1,-1,-1,-1,-1,-1,-1,-1,-1,-1,-1,-1,-1,-1,-1,-1,-1,-1],"loss_changes":[9.409695E10,4.1342157E9,6.850474E9,2.8724883E8,2.1087437E8,6.1704755E8,1.1455693E9,5.4061024E7,4.598455E7,2.2406272E7,0E0,8.531149E7,7.260058E7,1.1887002E8,1.400832E8,2.2554248E7,1.3360128E7,1.2019535E7,1.59336E7,7.790592E6,0E0,3.4064256E7,2.1809768E7,0E0,1.0162688E7,9.096192E6,5.9565056E7,8.846746E7,0E0,0E0,1.1297551E7,0E0,6.683336E6,6.6749305E6,2.1098875E6,8.829191E6,1.732716E7,0E0,1.482752E7,5.170381E7,1.5829632E7,1.8299978E6,1.9388456E7,3.49696E6,8.818086E7,0E0,0E0,3.413709E7,3.08184E6,0E0,2.852112E6,0E0,0E0,0E0,0E0,0E0,0E0,0E0,0E0,0E0,0E0,0E0,0E0,0E0,0E0,0E0,0E0,0E0,0E0,0E0,0E0,0E0,0E0,0E0,0E0,0E0,0E0,0E0,0E0,0E0,0E0,0E0,0E0],"parents":[2147483647,0,0,1,1,2,2,3,3,4,4,5,5,6,6,7,7,8,8,9,9,11,11,12,12,13,13,14,14,15,15,16,16,17,17,18,18,19,19,21,21,22,22,24,24,25,25,26,26,27,27,30,30,32,32,33,33,34,34,35,35,36,36,38,38,39,39,40,40,41,41,42,42,43,43,44,44,47,47,48,48,50,50],"right_children":[2,4,6,8,10,12,14,16,18,20,-1,22,24,26,28,30,32,34,36,38,-1,40,42,-1,44,46,48,50,-1,-1,52,-1,54,56,58,60,62,-1,64,66,68,70,72,74,76,-1,-1,78,80,-1,82,-1,-1,-1,-1,-1,-1,-1,-1,-1,-1,-1,-1,-1,-1,-1,-1,-1,-1,-1,-1,-1,-1,-1,-1,-1,-1,-1,-1,-1,-1,-1,-1],"split_conditions":[5.6045087E2,3.35348E1,1.00801776E3,3.4800793E2,4.603894E1,7.901994E2,1.402027E3,1.6959742E1,5.7949615E2,1.0604394E2,-5.7443695E1,6.9475464E1,2.679615E1,3.046434E1,1.4072422E3,2.3859785E0,3.6216006E2,4.6086636E0,5.543612E1,4.148317E1,-5.836406E0,7.029717E2,7.129428E1,1.01063126E2,4.6470047E1,1.3025773E3,5.976934E1,5.509312E1,1.4781573E2,1.8358263E1,1.1051164E1,-2.3846165E1,3.2860944E2,6.0773087E0,1.4435545E1,4.828992E2,3.2379508E0,-3.5727703E1,2.0242703E2,4.6470047E1,3.5806423E1,6.509814E2,7.565982E1,1.1368069E3,5.7404465E1,1.1554822E2,3.0984482E1,1.1666681E3,1.106344E3,1.2430763E2,1.348057E3,-1.1190183E1,5.0230136E0,-6.2145734E0,-1.7369444E1,-5.3230125E-1,-1.0350884E1,9.415716E0,1.5961336E0,1.1697856E1,-2.1027553E0,2.526772E1,-6.9464964E-1,-4.6295433E1,-3.6026099E0,7.3137784E0,3.5932304E1,1.0472281E1,4.5740295E1,1.6025634E0,-1.2633065E1,2.9073599E1,4.4178805E0,6.75989E1,1.79527E1,4.368087E1,8.441699E1,9.583211E1,3.0889744E1,1.2642285E1,5.2348934E1,1.2409626E1,5.2943012E1],"split_indices":[54,36,23,9,10,54,2,57,46,32,0,32,32,32,15,31,46,37,52,36,0,39,32,0,52,0,52,52,0,0,37,0,0,57,31,9,8,0,0,52,32,0,32,2,52,0,0,9,0,0,0,0,0,0,0,0,0,0,0,0,0,0,0,0,0,0,0,0,0,0,0,0,0,0,0,0,0,0,0,0,0,0,0],"split_type":[0,0,0,0,0,0,0,0,0,0,0,0,0,0,0,0,0,0,0,0,0,0,0,0,0,0,0,0,0,0,0,0,0,0,0,0,0,0,0,0,0,0,0,0,0,0,0,0,0,0,0,0,0,0,0,0,0,0,0,0,0,0,0,0,0,0,0,0,0,0,0,0,0,0,0,0,0,0,0,0,0,0,0],"sum_hessian":[2.089E3,1.351E3,7.38E2,2.1E2,1.141E3,2.77E2,4.61E2,1.26E2,8.4E1,1.17E2,1.024E3,1.32E2,1.45E2,2.52E2,2.09E2,2.5E1,1.01E2,4.4E1,4E1,1.15E2,2E0,1.16E2,1.6E1,8E0,1.37E2,6.9E1,1.83E2,1.25E2,8.4E1,3E0,2.2E1,5.6E1,4.5E1,2.9E1,1.5E1,2.2E1,1.8E1,3.7E1,7.8E1,5.3E1,6.3E1,3E0,1.3E1,9.8E1,3.9E1,6.8E1,1E0,1.77E2,6E0,1.22E2,3E0,1.7E1,5E0,8E0,3.7E1,1.9E1,1E1,9E0,6E0,1.6E1,6E0,1.5E1,3E0,7.7E1,1E0,8E0,4.5E1,2E0,6.1E1,1E0,2E0,7E0,6E0,9.7E1,1E0,3.1E1,8E0,1.75E2,2E0,1E0,5E0,1E0,2E0],"tree_param":{"num_deleted":"0","num_feature":"64","num_nodes":"83","size_leaf_vector":"1"}},{"base_weights":[3.242445E1,-4.850956E3,8.902328E3,-7.4332056E2,-5.5491084E3,4.9433804E3,1.1284094E4,2.4534337E2,-2.1744197E3,-4.2166235E3,-5.6962395E1,3.2653777E3,6.2396265E3,9.957405E3,1.3445638E4,-4.922558E2,9.665602E2,-2.689053E1,-1.8966537E3,-4.2738374E3,-5.797497E0,4.3941265E3,2.7408567E3,6.3560854E3,2.2299941E3,1.0698669E4,8.514557E3,1.3690746E2,8.0567955E1,1.4572917E3,-6.605373E2,-1.7513262E1,1.0904757E3,6.567171E2,-2.0033844E3,-3.6675587E1,-4.601823E3,2.7014207E3,4.826297E3,3.0450754E1,2.9388079E3,8.960228E1,6.1113184E3,7.751587E2,3.4264436E3,9.32736E1,1.1191913E2,8.6476045E3,1.1527202E3,1.8220575E1,-8.857422E-3,-9.296216E0,-5.577382E-1,1.1757444E1,-1.8849234E1,-1.4137402E0,1.1264497E1,-1.600007E1,-2.4073017E1,-4.65654E1,-3.584597E0,1.5150474E1,4.964609E1,5.1266582E1,1.6673723E1,9.20819E0,-2.6558794E1,3.0289064E1,-4.4342575E0,5.9388287E1,9.684275E1,-4.8960447E-1,1.0661852E1,4.3176903E1,8.2197485E0,8.742375E1,2.6060513E1,-3.482744E0,2.0773546E1],"categories":[],"categories_nodes":[],"categories_segments":[],"categories_sizes":[],"default_left":[0,0,0,0,0,0,0,0,0,0,0,0,0,0,0,0,0,0,0,0,0,0,0,0,0,0,0,0,0,0,0,0,0,0,0,0,0,0,0,0,0,0,0,0,0,0,0,0,0,0,0,0,0,0,0,0,0,0,0,0,0,0,0,0,0,0,0,0,0,0,0,0,0,0,0,0,0,0,0],"id":15,"left_children":[1,3,5,7,9,11,13,15,17,19,-1,21,23,25,27,29,31,-1,33,35,-1,37,39,41,43,45,47,-1,-1,49,51,-1,53,55,57,-1,59,61,63,65,67,-1,69,71,73,-1,-1,75,77,-1,-1,-1,-1,-1,-1,-1,-1,-1,-1,-1,-1,-1,-1,-1,-1,-1,-1,-1,-1,-1,-1,-1,-1,-1,-1,-1,-1,-1,-1],"loss_changes":[9.100492E10,3.881685E9,6.9784617E9,2.806789E8,2.0301005E8,5.9300454E8,1.1995955E9,6.324813E7,6.478592E6,2.2283648E7,0E0,6.196288E7,5.9605504E7,2.2120858E8,1.1952128E8,2.0318888E7,2.2117076E7,0E0,1.6576944E7,6.387968E6,0E0,1.4760512E7,4.712493E7,4.276429E7,7.787786E6,2.3445504E7,9.189786E7,0E0,0E0,2.661081E6,8.898432E6,0E0,1.6931296E7,1.2839191E6,4.946592E6,0E0,1.5048064E7,1.9328256E7,1.896768E7,1.9188346E7,2.6331328E7,0E0,3.06176E7,1.011563E6,3.414636E6,0E0,0E0,3.5618304E7,4.887103E6,0E0,0E0,0E0,0E0,0E0,0E0,0E0,0E0,0E0,0E0,0E0,0E0,0E0,0E0,0E0,0E0,0E0,0E0,0E0,0E0,0E0,0E0,0E0,0E0,0E0,0E0,0E0,0E0,0E0,0E0],"parents":[2147483647,0,0,1,1,2,2,3,3,4,4,5,5,6,6,7,7,8,8,9,9,11,11,12,12,13,13,14,14,15,15,16,16,18,18,19,19,21,21,22,22,23,23,24,24,25,25,26,26,29,29,30,30,32,32,33,33,34,34,36,36,37,37,38,38,39,39,40,40,42,42,43,43,44,44,47,47,48,48],"right_children":[2,4,6,8,10,12,14,16,18,20,-1,22,24,26,28,30,32,-1,34,36,-1,38,40,42,44,46,48,-1,-1,50,52,-1,54,56,58,-1,60,62,64,66,68,-1,70,72,74,-1,-1,76,78,-1,-1,-1,-1,-1,-1,-1,-1,-1,-1,-1,-1,-1,-1,-1,-1,-1,-1,-1,-1,-1,-1,-1,-1,-1,-1,-1,-1,-1,-1],"split_conditions":[5.9030054E2,3.35348E1,1.0710115E3,1.4807955E1,4.603894E1,7.76739E2,1.2874363E3,4.5594254E2,2.3728691E2,1.0604394E2,-5.6962395E1,4.5371773E1,5.976934E1,3.904435E1,5.2973E1,5.341842E1,5.080769E1,-2.689053E1,2.6522833E2,4.7339317E1,-5.797497E0,6.6999896E2,4.9771107E1,2.679615E1,9.427661E2,1.1130869E3,1.3565847E3,1.3690746E2,8.0567955E1,4.002259E2,5.976934E1,-1.7513262E1,7.5471115E1,2.950544E2,2.249532E1,-3.6675587E1,2.0242703E2,4.7851578E1,7.9162946E2,4.6470047E1,8.5193506E2,8.960228E1,5.7404465E1,8.282876E2,1.019475E3,9.32736E1,1.1191913E2,6.313261E1,1.449286E3,1.8220575E1,-8.857422E-3,-9.296216E0,-5.577382E-1,1.1757444E1,-1.8849234E1,-1.4137402E0,1.1264497E1,-1.600007E1,-2.4073017E1,-4.65654E1,-3.584597E0,1.5150474E1,4.964609E1,5.1266582E1,1.6673723E1,9.20819E0,-2.6558794E1,3.0289064E1,-4.4342575E0,5.9388287E1,9.684275E1,-4.8960447E-1,1.0661852E1,4.3176903E1,8.2197485E0,8.742375E1,2.6060513E1,-3.482744E0,2.0773546E1],"split_indices":[19,36,19,8,10,11,15,51,23,32,0,52,52,32,52,32,32,0,0,31,0,5,32,32,0,51,0,0,0,0,52,0,52,2,8,0,0,32,0,52,2,0,52,0,0,0,0,32,2,0,0,0,0,0,0,0,0,0,0,0,0,0,0,0,0,0,0,0,0,0,0,0,0,0,0,0,0,0,0],"split_type":[0,0,0,0,0,0,0,0,0,0,0,0,0,0,0,0,0,0,0,0,0,0,0,0,0,0,0,0,0,0,0,0,0,0,0,0,0,0,0,0,0,0,0,0,0,0,0,0,0,0,0,0,0,0,0,0,0,0,0,0,0,0,0,0,0,0,0,0,0,0,0,0,0,0,0,0,0,0,0],"sum_hessian":[2.099E3,1.354E3,7.45E2,1.97E2,1.157E3,2.81E2,4.64E2,1.17E2,8E1,1.18E2,1.039E3,1.24E2,1.57E2,2.91E2,1.73E2,5.8E1,5.9E1,2.5E1,5.5E1,1.16E2,2E0,3.7E1,8.7E1,1.52E2,5E0,1.88E2,1.03E2,1.64E2,9E0,4E0,5.4E1,2E0,5.7E1,2E0,5.3E1,4.5E1,7.1E1,9E0,2.8E1,6E0,8.1E1,1E1,1.42E2,3E0,2E0,5.5E1,1.33E2,1.01E2,2E0,3E0,1E0,3.7E1,1.7E1,5.6E1,1E0,1E0,1E0,2.9E1,2.4E1,7E1,1E0,7E0,2E0,2.5E1,3E0,5E0,1E0,7.9E1,2E0,1.38E2,4E0,1E0,2E0,1E0,1E0,9.9E1,2E0,1E0,1E0],"tree_param":{"num_deleted":"0","num_feature":"64","num_nodes":"79","size_leaf_vector":"1"}},{"base_weights":[4.4897106E1,-4.795804E3,8.929415E3,-7.6215515E2,-5.4998726E3,4.791404E3,1.13531E4,-1.8062705E3,7.6237994E2,-3.8618887E3,-5.6133486E3,3.2584365E3,6.062353E3,9.995362E3,1.3257097E4,2.2016474E1,-1.8935994E3,7.974324E1,1.5904585E3,-3.903317E1,-3.5666747E0,-5.0250786E3,-5.6612896E1,3.5163335E3,1.2817434E3,8.943392E1,5.8096523E3,1.0062597E4,2.9749922E1,1.3511635E2,9.676325E1,-2.4940208E3,-1.424266E3,2.147096E2,-1.3910809E3,2.096096E3,4.957358E2,-5.124298E1,-4.7269335E0,3.6675527E3,-3.9277988E2,-8.8415247E2,1.8495774E3,5.8804985E3,6.614012E2,1.1247472E4,9.528832E3,-2.5314236E1,-3.3064647E0,-1.7280573E1,-1.0059323E1,-3.3231432E0,8.036067E0,-1.5965692E1,-3.873081E0,2.2154081E1,4.826704E0,-8.302878E0,1.1773338E1,3.1408138E1,5.248553E1,-9.041352E0,8.263207E0,1.4431055E0,-1.275077E1,2.9606628E1,4.7426653E0,6.0612083E1,3.2759544E1,-4.8715577E-1,1.0408174E1,9.636346E1,1.2214823E2,6.3934807E1,9.758419E1],"categories":[],"categories_nodes":[],"categories_segments":[],"categories_sizes":[],"default_left":[0,0,0,0,0,0,0,0,0,0,0,0,0,0,0,0,0,0,0,0,0,0,0,0,0,0,0,0,0,0,0,0,0,0,0,0,0,0,0,0,0,0,0,0,0,0,0,0,0,0,0,0,0,0,0,0,0,0,0,0,0,0,0,0,0,0,0,0,0,0,0,0,0,0,0],"id":16,"left_children":[1,3,5,7,9,11,13,15,17,19,21,23,25,27,29,-1,31,33,35,-1,-1,37,-1,39,41,-1,43,45,-1,-1,-1,47,49,51,53,55,57,-1,-1,59,61,63,65,67,69,71,73,-1,-1,-1,-1,-1,-1,-1,-1,-1,-1,-1,-1,-1,-1,-1,-1,-1,-1,-1,-1,-1,-1,-1,-1,-1,-1,-1,-1],"loss_changes":[8.88959E10,3.7956813E9,7.256912E9,3.1973514E8,1.9002982E8,5.0824192E8,1.05406464E9,4.5819904E7,4.6225876E7,9.78944E6,1.529856E6,5.921587E7,5.5064576E7,9.845146E7,4.0607744E7,0E0,2.9418176E7,9.430221E6,1.94416E7,0E0,0E0,3.777741E7,0E0,6.6465024E7,2.1313214E7,0E0,4.644352E7,6.2951424E7,0E0,0E0,0E0,3.2088E6,6.903568E6,1.4119107E7,2.0669E5,3.743232E6,1.2727124E7,0E0,0E0,7.178944E7,3.8640742E6,1.7922128E6,1.8460996E7,4.415437E7,8.589936E5,3.857408E6,7.581696E7,0E0,0E0,0E0,0E0,0E0,0E0,0E0,0E0,0E0,0E0,0E0,0E0,0E0,0E0,0E0,0E0,0E0,0E0,0E0,0E0,0E0,0E0,0E0,0E0,0E0,0E0,0E0,0E0],"parents":[2147483647,0,0,1,1,2,2,3,3,4,4,5,5,6,6,7,7,8,8,9,9,10,10,11,11,12,12,13,13,14,14,16,16,17,17,18,18,21,21,23,23,24,24,26,26,27,27,31,31,32,32,33,33,34,34,35,35,36,36,39,39,40,40,41,41,42,42,43,43,44,44,45,45,46,46],"right_children":[2,4,6,8,10,12,14,16,18,20,22,24,26,28,30,-1,32,34,36,-1,-1,38,-1,40,42,-1,44,46,-1,-1,-1,48,50,52,54,56,58,-1,-1,60,62,64,66,68,70,72,74,-1,-1,-1,-1,-1,-1,-1,-1,-1,-1,-1,-1,-1,-1,-1,-1,-1,-1,-1,-1,-1,-1,-1,-1,-1,-1,-1,-1],"split_conditions":[5.9564197E2,4.013126E1,1.0710115E3,4.8225635E2,5.979719E1,8.328206E2,1.1920996E3,2.3859785E0,5.2069574E2,9.956694E1,7.604787E1,6.9475464E1,2.679615E1,6.2117886E1,4.5662018E1,2.2016474E1,2.584531E2,4.9998727E2,5.1140463E2,-3.903317E1,-3.5666747E0,1.0989092E2,-5.6612896E1,8.244795E2,7.129428E1,8.943392E1,7.00282E1,3.77174E1,2.9749922E1,1.3511635E2,9.676325E1,8.6468315E1,3.1906516E2,5.378796E2,4.9832697E2,5.747084E2,4.942044E1,-5.124298E1,-4.7269335E0,7.570396E2,7.5663196E2,6.509814E2,7.565982E1,9.884954E2,8.282876E2,1.1695421E3,3.901105E1,-2.5314236E1,-3.3064647E0,-1.7280573E1,-1.0059323E1,-3.3231432E0,8.036067E0,-1.5965692E1,-3.873081E0,2.2154081E1,4.826704E0,-8.302878E0,1.1773338E1,3.1408138E1,5.248553E1,-9.041352E0,8.263207E0,1.4431055E0,-1.275077E1,2.9606628E1,4.7426653E0,6.0612083E1,3.2759544E1,-4.8715577E-1,1.0408174E1,9.636346E1,1.2214823E2,6.3934807E1,9.758419E1],"split_indices":[61,57,19,46,6,3,9,31,3,32,47,32,32,52,32,0,11,19,15,0,0,32,0,3,32,0,32,52,0,0,0,32,5,46,0,3,52,0,0,19,5,0,32,15,0,0,52,0,0,0,0,0,0,0,0,0,0,0,0,0,0,0,0,0,0,0,0,0,0,0,0,0,0,0,0],"split_type":[0,0,0,0,0,0,0,0,0,0,0,0,0,0,0,0,0,0,0,0,0,0,0,0,0,0,0,0,0,0,0,0,0,0,0,0,0,0,0,0,0,0,0,0,0,0,0,0,0,0,0,0,0,0,0,0,0,0,0,0,0,0,0,0,0,0,0,0,0,0,0,0,0,0,0],"sum_hessian":[2.065E3,1.337E3,7.28E2,1.99E2,1.138E3,2.7E2,4.58E2,1.18E2,8.1E1,7.6E1,1.062E3,1.24E2,1.46E2,2.71E2,1.87E2,2E0,1.16E2,4.5E1,3.6E1,7.5E1,1E0,8.8E1,9.74E2,1.09E2,1.5E1,9E0,1.37E2,2.68E2,3E0,1.72E2,1.5E1,4.9E1,6.7E1,4.2E1,3E0,2.4E1,1.2E1,8.6E1,2E0,1.05E2,4E0,3E0,1.2E1,1.35E2,2E0,7.7E1,1.91E2,4.8E1,1E0,3.7E1,3E1,2.2E1,2E1,2E0,1E0,2.2E1,2E0,4E0,8E0,8.1E1,2.4E1,3E0,1E0,1E0,2E0,6E0,6E0,1.25E2,1E1,1E0,1E0,3.3E1,4.4E1,1.5E1,1.76E2],"tree_param":{"num_deleted":"0","num_feature":"64","num_nodes":"75","size_leaf_vector":"1"}},{"base_weights":[-3.551955E1,-4.7111924E3,8.657147E3,-5.470839E2,-5.424667E3,4.7654043E3,1.1100667E4,6.376635E2,-1.7872607E3,-3.8445713E3,-5.553708E3,3.1801035E3,6.0335835E3,9.732874E3,1.3052692E4,-5.4319046E1,1.5153818E3,-2.0658384E3,-5.348977E2,-3.879794E3,-3.5488403E0,-1.7270958E3,-5.5593094E1,3.462279E3,4.3931415E2,6.124117E3,1.084907E1,1.02389305E2,8.579806E3,1.3365805E4,9.492137E1,2.2331678E1,-1.3362878E2,1.764035E3,-8.266501E2,-2.3196716E3,-1.5206539E3,-8.797449E2,6.066234E2,-3.9594864E1,-2.3806145E1,-3.8583739E0,-2.2048063E1,3.6261353E3,-1.1880054E2,1.7008024E1,-1.0921255E2,6.20475E3,1.5895024E3,8.693878E3,2.4878077E1,1.1533602E2,1.4008734E2,-2.2188964E0,1.5290297E1,1.8691654E1,-1.2205913E1,5.362565E0,-1.9140066E1,-2.5316162E1,-1.4022222E1,4.1322264E-1,-1.709744E1,3.4209366E0,-1.3551493E1,8.9379884E-2,7.5381026E0,2.7934204E1,4.5346992E1,-1.1430451E1,3.146574E0,-4.9290094E0,1.6719913E1,1.01461426E2,6.0542683E1,-2.6541878E1,3.888795E1,8.8105194E1,2.5688442E1],"categories":[],"categories_nodes":[],"categories_segments":[],"categories_sizes":[],"default_left":[0,0,0,0,0,0,0,0,0,0,0,0,0,0,0,0,0,0,0,0,0,0,0,0,0,0,0,0,0,0,0,0,0,0,0,0,0,0,0,0,0,0,0,0,0,0,0,0,0,0,0,0,0,0,0,0,0,0,0,0,0,0,0,0,0,0,0,0,0,0,0,0,0,0,0,0,0,0,0],"id":17,"left_children":[1,3,5,7,9,11,13,15,17,19,21,23,25,27,29,31,33,35,37,39,-1,41,-1,43,45,47,-1,-1,49,51,-1,-1,53,55,57,59,61,63,65,-1,-1,-1,-1,67,69,-1,71,73,75,77,-1,-1,-1,-1,-1,-1,-1,-1,-1,-1,-1,-1,-1,-1,-1,-1,-1,-1,-1,-1,-1,-1,-1,-1,-1,-1,-1,-1,-1],"loss_changes":[8.4133356E10,3.9959777E9,6.8320174E9,2.9206035E8,2.1292646E8,5.45748E8,1.0584228E9,6.2033628E7,3.2736416E7,9.685504E6,1.311744E7,9.669862E7,6.279885E7,6.678323E7,7.380173E7,1.0820775E7,2.766416E7,7.405056E6,8.0130305E6,1.207168E6,0E0,1.071502E6,0E0,6.791078E7,9.181229E6,4.571443E7,0E0,0E0,3.883059E7,3.0437376E7,0E0,0E0,8.703891E6,1.5146256E7,8.436226E6,6.56144E6,8.340564E6,9.176598E6,4.3311975E5,0E0,0E0,0E0,0E0,7.05559E7,3.0234695E6,0E0,7.658399E6,2.6945536E7,4.9351532E7,3.8093824E7,0E0,0E0,0E0,0E0,0E0,0E0,0E0,0E0,0E0,0E0,0E0,0E0,0E0,0E0,0E0,0E0,0E0,0E0,0E0,0E0,0E0,0E0,0E0,0E0,0E0,0E0,0E0,0E0,0E0],"parents":[2147483647,0,0,1,1,2,2,3,3,4,4,5,5,6,6,7,7,8,8,9,9,10,10,11,11,12,12,13,13,14,14,15,15,16,16,17,17,18,18,19,19,21,21,23,23,24,24,25,25,28,28,29,29,32,32,33,33,34,34,35,35,36,36,37,37,38,38,43,43,44,44,46,46,47,47,48,48,49,49],"right_children":[2,4,6,8,10,12,14,16,18,20,22,24,26,28,30,32,34,36,38,40,-1,42,-1,44,46,48,-1,-1,50,52,-1,-1,54,56,58,60,62,64,66,-1,-1,-1,-1,68,70,-1,72,74,76,78,-1,-1,-1,-1,-1,-1,-1,-1,-1,-1,-1,-1,-1,-1,-1,-1,-1,-1,-1,-1,-1,-1,-1,-1,-1,-1,-1,-1,-1],"split_conditions":[5.9030054E2,3.813704E1,1.0710115E3,8.2891245E0,5.3966908E1,7.76739E2,1.2729415E3,5.393728E2,3.8894507E2,9.956694E1,2.239058E1,6.9475464E1,7.00282E1,3.9624725E1,4.5662018E1,3.9452587E1,8.043257E1,3.2107278E2,4.4447043E2,2.63945E2,-3.5488403E0,1.5031834E2,-5.5593094E1,7.4801263E2,6.4438855E2,1.1212992E3,1.084907E1,1.02389305E2,1.3345745E3,1.4965995E3,9.492137E1,2.2331678E1,1.0050094E1,5.5888983E2,5.0265674E2,8.135664E1,3.2860944E2,3.958064E2,1.2618081E1,-3.9594864E1,-2.3806145E1,-3.8583739E0,-2.2048063E1,7.029717E2,3.5806423E1,1.7008024E1,7.769156E2,1.6834444E1,1.0575468E3,6.313261E1,2.4878077E1,1.1533602E2,1.4008734E2,-2.2188964E0,1.5290297E1,1.8691654E1,-1.2205913E1,5.362565E0,-1.9140066E1,-2.5316162E1,-1.4022222E1,4.1322264E-1,-1.709744E1,3.4209366E0,-1.3551493E1,8.9379884E-2,7.5381026E0,2.7934204E1,4.5346992E1,-1.1430451E1,3.146574E0,-4.9290094E0,1.6719913E1,1.01461426E2,6.0542683E1,-2.6541878E1,3.888795E1,8.8105194E1,2.5688442E1],"split_indices":[19,24,19,49,37,11,15,2,2,32,34,32,32,32,32,32,32,0,0,2,0,0,0,23,0,20,0,0,0,20,0,0,6,11,0,32,0,2,6,0,0,0,0,39,32,0,0,32,0,32,0,0,0,0,0,0,0,0,0,0,0,0,0,0,0,0,0,0,0,0,0,0,0,0,0,0,0,0,0],"split_type":[0,0,0,0,0,0,0,0,0,0,0,0,0,0,0,0,0,0,0,0,0,0,0,0,0,0,0,0,0,0,0,0,0,0,0,0,0,0,0,0,0,0,0,0,0,0,0,0,0,0,0,0,0,0,0,0,0,0,0,0,0,0,0,0,0,0,0,0,0,0,0,0,0,0,0,0,0,0,0],"sum_hessian":[2.068E3,1.345E3,7.23E2,1.97E2,1.148E3,2.8E2,4.43E2,1.01E2,9.6E1,8.9E1,1.059E3,1.26E2,1.54E2,2.64E2,1.79E2,5.7E1,4.4E1,7.8E1,1.8E1,8.8E1,1E0,2E0,1.057E3,1.14E2,1.2E1,1.51E2,3E0,1.78E2,8.6E1,1.62E2,1.7E1,1E0,5.6E1,4E1,4E0,5.1E1,2.7E1,1.4E1,4E0,8.2E1,6E0,1E0,1E0,1.09E2,5E0,3E0,9E0,1.48E2,3E0,8.4E1,2E0,4.7E1,1.15E2,5.4E1,2E0,3.9E1,1E0,2E0,2E0,4E1,1.1E1,3E0,2.4E1,4E0,1E1,1E0,3E0,5.9E1,5E1,1E0,4E0,8E0,1E0,3E0,1.45E2,1E0,2E0,8.2E1,2E0],"tree_param":{"num_deleted":"0","num_feature":"64","num_nodes":"79","size_leaf_vector":"1"}},{"base_weights":[-4.68283E0,-4.64142E3,8.819253E3,-5.4930396E2,-5.3668003E3,4.9563804E3,1.0982436E4,4.9528104E2,-2.0369161E3,-3.847195E3,-5.507169E3,3.4754785E3,6.2713906E3,9.452037E3,1.2773905E4,-6.3895584E1,1.4008411E3,-2.2870847E3,-1.5870382E3,-3.8782937E3,-3.5310962E0,-5.512675E1,-1.7184604E3,3.5619521E3,-1.2284302E3,6.7211885E3,3.873542E3,1.0165061E4,7.999606E3,1.30002295E4,6.947386E3,8.343949E2,-3.1319138E2,1.5971777E3,-1.1090732E3,-2.441812E1,-1.3775765E3,-2.2244091E1,-1.0296581E3,-3.9493286E1,-2.360209E1,-3.839082E0,-2.1937824E1,2.5446982E3,4.1790654E3,2.4896507E0,-2.0916103E1,6.1732056E3,8.183808E1,9.753259E0,4.2411284E3,1.0235669E4,2.9167381E1,8.370769E3,3.2416396E3,1.1886632E4,1.4141382E2,-2.684397E0,7.7789717E3,1.4214997E1,-8.589567E0,-2.2243113E1,-1.7599014E0,9.58396E0,2.315796E1,6.3372335E0,-1.9012465E1,1.1404859E1,-1.7840818E1,-5.1639276E0,-2.1412117E1,2.848466E1,3.151683E0,2.9012392E1,4.3533596E1,6.684108E1,3.0317741E1,5.1881016E1,2.4020422E1,8.850434E1,1.0970124E2,8.444974E1,1.2171579E1,-2.6624247E1,4.4654236E1,1.20793396E2,6.597384E1,8.250185E1,2.0046322E1],"categories":[],"categories_nodes":[],"categories_segments":[],"categories_sizes":[],"default_left":[0,0,0,0,0,0,0,0,0,0,0,0,0,0,0,0,0,0,0,0,0,0,0,0,0,0,0,0,0,0,0,0,0,0,0,0,0,0,0,0,0,0,0,0,0,0,0,0,0,0,0,0,0,0,0,0,0,0,0,0,0,0,0,0,0,0,0,0,0,0,0,0,0,0,0,0,0,0,0,0,0,0,0,0,0,0,0,0,0],"id":18,"left_children":[1,3,5,7,9,11,13,15,17,19,21,23,25,27,29,31,33,35,37,39,-1,-1,41,43,45,47,49,51,53,55,57,59,61,63,65,-1,67,-1,69,-1,-1,-1,-1,71,73,-1,-1,75,-1,-1,77,79,-1,81,83,85,-1,-1,87,-1,-1,-1,-1,-1,-1,-1,-1,-1,-1,-1,-1,-1,-1,-1,-1,-1,-1,-1,-1,-1,-1,-1,-1,-1,-1,-1,-1,-1,-1],"loss_changes":[8.575633E10,4.0755507E9,5.978669E9,3.2422784E8,2.277417E8,4.8647578E8,1.1459092E9,6.237277E7,6.049152E6,9.71392E6,1.2767232E7,5.522112E7,1.2172595E8,1.80693E8,1.8660352E8,1.7504708E7,2.493244E7,4.09472E6,9.788384E6,1.570432E6,0E0,0E0,1.060815E6,6.6580096E7,4.346513E6,4.084992E7,2.143184E7,5.510349E7,1.2827085E8,8.733491E7,6.209392E7,1.812198E7,1.5603229E7,1.797832E7,6.727253E6,0E0,1.2270778E7,0E0,1.0304732E7,0E0,0E0,0E0,0E0,3.2287968E7,4.073728E6,0E0,0E0,1.1936742E8,0E0,0E0,2.4110784E7,6.976307E7,0E0,3.271936E7,6.9691256E7,3.0389248E7,0E0,0E0,7.949952E6,0E0,0E0,0E0,0E0,0E0,0E0,0E0,0E0,0E0,0E0,0E0,0E0,0E0,0E0,0E0,0E0,0E0,0E0,0E0,0E0,0E0,0E0,0E0,0E0,0E0,0E0,0E0,0E0,0E0,0E0],"parents":[2147483647,0,0,1,1,2,2,3,3,4,4,5,5,6,6,7,7,8,8,9,9,10,10,11,11,12,12,13,13,14,14,15,15,16,16,17,17,18,18,19,19,22,22,23,23,24,24,25,25,26,26,27,27,28,28,29,29,30,30,31,31,32,32,33,33,34,34,36,36,38,38,43,43,44,44,47,47,50,50,51,51,53,53,54,54,55,55,58,58],"right_children":[2,4,6,8,10,12,14,16,18,20,22,24,26,28,30,32,34,36,38,40,-1,-1,42,44,46,48,50,52,54,56,58,60,62,64,66,-1,68,-1,70,-1,-1,-1,-1,72,74,-1,-1,76,-1,-1,78,80,-1,82,84,86,-1,-1,88,-1,-1,-1,-1,-1,-1,-1,-1,-1,-1,-1,-1,-1,-1,-1,-1,-1,-1,-1,-1,-1,-1,-1,-1,-1,-1,-1,-1,-1,-1],"split_conditions":[6.374249E2,3.309536E1,1.0710115E3,1.4807955E1,5.3966908E1,8.32254E2,1.305558E3,5.393728E2,3.39762E2,9.956694E1,1.3821983E2,8.203906E2,1.1366403E3,3.9624725E1,5.329251E1,4.798641E0,8.547662E1,8.221322E1,6.410536E1,2.63945E2,-3.5310962E0,-5.512675E1,1.5031834E2,7.4260675E2,8.7826196E2,1.1257657E3,9.031249E2,1.3140654E3,1.3744291E3,1.4360497E3,4.9008125E1,4.5881735E2,5.7691166E1,5.543612E1,4.9428305E2,-2.441812E1,6.86878E1,-2.2244091E1,3.3019662E2,-3.9493286E1,-2.360209E1,-3.839082E0,-2.1937824E1,6.9475464E1,4.0684032E1,2.4896507E0,-2.0916103E1,1.0281531E3,8.183808E1,9.753259E0,9.884954E2,1.1695421E3,2.9167381E1,6.313261E1,4.0204693E1,1.4728916E3,1.4141382E2,-2.684397E0,5.6753906E1,1.4214997E1,-8.589567E0,-2.2243113E1,-1.7599014E0,9.58396E0,2.315796E1,6.3372335E0,-1.9012465E1,1.1404859E1,-1.7840818E1,-5.1639276E0,-2.1412117E1,2.848466E1,3.151683E0,2.9012392E1,4.3533596E1,6.684108E1,3.0317741E1,5.1881016E1,2.4020422E1,8.850434E1,1.0970124E2,8.444974E1,1.2171579E1,-2.6624247E1,4.4654236E1,1.20793396E2,6.597384E1,8.250185E1,2.0046322E1],"split_indices":[2,8,19,8,37,19,63,2,2,32,63,0,46,32,52,57,32,32,52,2,0,0,0,20,2,45,9,0,2,59,32,5,32,52,0,0,52,0,23,0,0,0,0,32,52,0,0,20,0,0,15,0,0,32,32,19,0,0,32,0,0,0,0,0,0,0,0,0,0,0,0,0,0,0,0,0,0,0,0,0,0,0,0,0,0,0,0,0,0],"split_type":[0,0,0,0,0,0,0,0,0,0,0,0,0,0,0,0,0,0,0,0,0,0,0,0,0,0,0,0,0,0,0,0,0,0,0,0,0,0,0,0,0,0,0,0,0,0,0,0,0,0,0,0,0,0,0,0,0,0,0,0,0,0,0,0,0,0,0,0,0,0,0,0,0,0,0,0,0,0,0,0,0,0,0,0,0,0,0,0,0],"sum_hessian":[2.094E3,1.373E3,7.21E2,2.07E2,1.166E3,2.6E2,4.61E2,1.22E2,8.5E1,1.01E2,1.065E3,1.24E2,1.36E2,2.52E2,2.09E2,7.6E1,4.6E1,5.2E1,3.3E1,1E2,1E0,1.063E3,2E0,1.22E2,2E0,1.13E2,2.3E1,1.65E2,8.7E1,2E2,9E0,1.6E1,6E1,4.3E1,3E0,4.3E1,9E0,1.4E1,1.9E1,9.4E1,6E0,1E0,1E0,4.8E1,7.4E1,1E0,1E0,8.6E1,2.7E1,3E0,2E1,1.63E2,2E0,8E1,7E0,1.07E2,9.3E1,1E0,8E0,1.2E1,4E0,3E0,5.7E1,2.4E1,1.9E1,1E0,2E0,1E0,8E0,1.4E1,5E0,4.2E1,6E0,1.1E1,6.3E1,7.3E1,1.3E1,1.2E1,8E0,6.1E1,1.02E2,7.9E1,1E0,1E0,6E0,1.02E2,5E0,7E0,1E0],"tree_param":{"num_deleted":"0","num_feature":"64","num_nodes":"89","size_leaf_vector":"1"}},{"base_weights":[-3.5188595E1,-4.621102E3,8.587399E3,-5.312315E3,-3.989655E2,4.8292856E3,1.0909413E4,-3.9387966E3,-5.4714314E1,-1.4443411E3,8.6728046E2,2.738387E3,5.84298E3,9.801675E3,1.3029369E4,-3.9906355E3,-5.1775556E0,1.776745E1,-1.556498E3,1.5834413E2,1.5254355E3,2.9062034E3,6.1304016E2,7.4120415E1,5.4006333E3,1.0513216E4,8.3938125E3,1.3157281E2,5.1032485E3,-3.4291134E1,-4.415122E3,-1.1562991E3,-2.358238E1,-1.3771553E3,3.079355E2,1.7392668E3,-1.1011512E3,3.030276E3,3.149875E2,1.5488894E1,-2.5824738E2,5.690734E3,3.576576E3,9.1306114E1,1.1015388E4,8.595215E3,3.6716995E1,1.1479991E3,8.484498E1,-4.4722363E1,-3.51344E0,-1.4944755E1,-6.826426E0,-5.2177735E-2,-1.8327284E1,9.8873625E0,-1.9148298E-1,7.2924237E0,2.7145653E1,6.3055468E0,-1.8885714E1,2.3531332E1,3.603024E1,-1.384563E1,1.909542E1,7.4675894E0,-1.1771712E1,4.5386078E1,6.1366673E1,-7.6324334E0,4.0262367E1,1.11101654E2,5.110149E1,5.7595276E1,8.920142E1,1.989096E1,-2.670974E0],"categories":[],"categories_nodes":[],"categories_segments":[],"categories_sizes":[],"default_left":[0,0,0,0,0,0,0,0,0,0,0,0,0,0,0,0,0,0,0,0,0,0,0,0,0,0,0,0,0,0,0,0,0,0,0,0,0,0,0,0,0,0,0,0,0,0,0,0,0,0,0,0,0,0,0,0,0,0,0,0,0,0,0,0,0,0,0,0,0,0,0,0,0,0,0,0,0],"id":19,"left_children":[1,3,5,7,9,11,13,15,-1,17,19,21,23,25,27,29,-1,-1,31,33,35,37,39,-1,41,43,45,-1,47,-1,49,51,-1,53,55,57,59,61,63,-1,65,67,69,-1,71,73,-1,75,-1,-1,-1,-1,-1,-1,-1,-1,-1,-1,-1,-1,-1,-1,-1,-1,-1,-1,-1,-1,-1,-1,-1,-1,-1,-1,-1,-1,-1],"loss_changes":[8.177392E10,3.9377142E9,6.212862E9,2.3196672E8,2.5407984E8,5.689902E8,9.126175E8,1.9924352E7,0E0,4.069853E7,4.03518E7,3.1031744E7,8.837325E7,2.0726989E8,8.391885E7,1.393984E7,0E0,0E0,3.0000432E7,1.0301064E7,2.7189272E7,2.6372928E7,6.923148E6,0E0,5.7962496E7,3.2729088E7,6.73495E7,0E0,4.3754544E7,0E0,1.37472E7,1.0192368E7,0E0,2.4905085E6,8.926086E6,3.939359E7,6.6451685E6,2.2936E7,1.6194012E7,0E0,5.4966845E6,3.6883456E7,4.795629E7,0E0,1.934336E7,3.9842816E7,0E0,4.1019832E6,0E0,0E0,0E0,0E0,0E0,0E0,0E0,0E0,0E0,0E0,0E0,0E0,0E0,0E0,0E0,0E0,0E0,0E0,0E0,0E0,0E0,0E0,0E0,0E0,0E0,0E0,0E0,0E0,0E0],"parents":[2147483647,0,0,1,1,2,2,3,3,4,4,5,5,6,6,7,7,9,9,10,10,11,11,12,12,13,13,14,14,15,15,18,18,19,19,20,20,21,21,22,22,24,24,25,25,26,26,28,28,30,30,31,31,33,33,34,34,35,35,36,36,37,37,38,38,40,40,41,41,42,42,44,44,45,45,47,47],"right_children":[2,4,6,8,10,12,14,16,-1,18,20,22,24,26,28,30,-1,-1,32,34,36,38,40,-1,42,44,46,-1,48,-1,50,52,-1,54,56,58,60,62,64,-1,66,68,70,-1,72,74,-1,76,-1,-1,-1,-1,-1,-1,-1,-1,-1,-1,-1,-1,-1,-1,-1,-1,-1,-1,-1,-1,-1,-1,-1,-1,-1,-1,-1,-1,-1],"split_conditions":[6.820709E2,1.722905E2,1.0609113E3,4.603894E1,3.4800793E2,7.4656976E2,1.3140391E3,1.038669E2,-5.4714314E1,8.7031126E-1,5.393728E2,7.565982E1,3.3986115E1,3.9624725E1,4.846384E1,4.7339317E1,-5.1775556E0,1.776745E1,3.0748959E1,5.7691166E1,8.043257E1,6.9915234E2,6.325139E2,7.4120415E1,1.0934229E3,1.0406775E3,5.976934E1,1.3157281E2,1.4761201E3,-3.4291134E1,2.0242703E2,3.55819E2,-2.358238E1,4.6170135E2,4.798641E0,6.0543236E1,4.9428305E2,7.851208E2,6.510622E2,1.5488894E1,7.926213E1,8.098735E2,3.8395313E1,9.1306114E1,1.3765741E3,4.0543427E1,3.6716995E1,1.443004E3,8.484498E1,-4.4722363E1,-3.51344E0,-1.4944755E1,-6.826426E0,-5.2177735E-2,-1.8327284E1,9.8873625E0,-1.9148298E-1,7.2924237E0,2.7145653E1,6.3055468E0,-1.8885714E1,2.3531332E1,3.603024E1,-1.384563E1,1.909542E1,7.4675894E0,-1.1771712E1,4.5386078E1,6.1366673E1,-7.6324334E0,4.0262367E1,1.11101654E2,5.110149E1,5.7595276E1,8.920142E1,1.989096E1,-2.670974E0],"split_indices":[45,9,39,10,9,39,15,32,0,8,2,32,32,32,32,31,0,0,57,32,32,15,0,0,2,9,52,0,0,0,0,0,0,0,57,32,0,45,9,0,32,59,52,0,0,32,0,0,0,0,0,0,0,0,0,0,0,0,0,0,0,0,0,0,0,0,0,0,0,0,0,0,0,0,0,0,0],"split_type":[0,0,0,0,0,0,0,0,0,0,0,0,0,0,0,0,0,0,0,0,0,0,0,0,0,0,0,0,0,0,0,0,0,0,0,0,0,0,0,0,0,0,0,0,0,0,0,0,0,0,0,0,0,0,0,0,0,0,0,0,0,0,0,0,0,0,0,0,0,0,0,0,0,0,0,0,0],"sum_hessian":[2.066E3,1.349E3,7.17E2,1.159E3,1.9E2,2.75E2,4.42E2,1.23E2,1.036E3,1.04E2,8.6E1,9.1E1,1.84E2,2.94E2,1.48E2,1.21E2,2E0,3E0,1.01E2,4.2E1,4.4E1,8.4E1,7E0,3.7E1,1.47E2,1.91E2,1.03E2,1.45E2,3E0,5.6E1,6.5E1,6.9E1,3.2E1,3E0,3.9E1,4.1E1,3E0,8E1,4E0,3E0,4E0,1.25E2,2.2E1,5.6E1,1.35E2,9.8E1,5E0,2E0,1E0,6.4E1,1E0,3.9E1,3E1,1E0,2E0,1.2E1,2.7E1,2.1E1,2E1,1E0,2E0,3.9E1,4.1E1,2E0,2E0,2E0,2E0,3.8E1,8.7E1,2E0,2E1,1.32E2,3E0,1.2E1,8.6E1,1E0,1E0],"tree_param":{"num_deleted":"0","num_feature":"64","num_nodes":"77","size_leaf_vector":"1"}},{"base_weights":[1.9761097E1,-4.613865E3,8.595401E3,-5.2681245E3,-6.6465027E2,4.9747983E3,1.1069557E4,-3.7638892E3,-5.4021274E3,2.7750183E2,-1.9393314E3,3.4004834E3,6.2518066E3,1.0209825E4,1.3828564E2,-3.1407682E1,-4.1005753E1,-5.4393326E1,-4.696331E3,-2.912753E2,8.030144E2,-2.0466211E3,-4.820976E2,3.696E3,1.0970732E3,8.434997E3,6.0095933E3,1.0832529E4,9.038354E3,-4.8364223E1,-3.757645E0,1.6546272E1,-4.7633878E2,8.806302E2,-1.8493507E1,-2.0945698E3,-6.479136E2,6.3820312E1,-1.2312615E1,3.7896943E3,-1.2525458E3,-9.100123E2,1.592164E3,8.728834E1,2.3075596E1,6.036596E1,9.660847E0,8.603247E3,1.1203758E4,9.092885E1,1.1927138E1,-6.097659E0,8.731441E0,4.1368544E-1,1.2276076E1,-1.0266111E1,-2.1737041E1,-8.268841E0,-5.550098E-1,-6.1460743E0,3.870791E0,3.2234966E1,4.71545E1,2.2502708E0,-2.1038456E1,1.3271215E0,-1.3018246E1,3.0395247E1,7.092672E0,8.72241E1,2.2758657E1,1.1327684E2,6.5050476E1],"categories":[],"categories_nodes":[],"categories_segments":[],"categories_sizes":[],"default_left":[0,0,0,0,0,0,0,0,0,0,0,0,0,0,0,0,0,0,0,0,0,0,0,0,0,0,0,0,0,0,0,0,0,0,0,0,0,0,0,0,0,0,0,0,0,0,0,0,0,0,0,0,0,0,0,0,0,0,0,0,0,0,0,0,0,0,0,0,0,0,0,0,0],"id":20,"left_children":[1,3,5,7,9,11,13,15,17,19,21,23,25,27,-1,-1,-1,-1,29,31,33,35,37,39,41,43,45,47,49,-1,-1,-1,51,53,-1,55,57,59,-1,61,63,65,67,-1,-1,-1,-1,69,71,-1,-1,-1,-1,-1,-1,-1,-1,-1,-1,-1,-1,-1,-1,-1,-1,-1,-1,-1,-1,-1,-1,-1,-1],"loss_changes":[8.348592E10,3.520815E9,6.5469317E9,2.1550694E8,2.3472216E8,5.838756E8,8.953774E8,7.890816E6,2.603008E6,3.4009544E7,1.1990048E7,8.920051E7,3.6560896E7,1.4792704E8,0E0,0E0,0E0,0E0,3.510413E7,2.0594516E7,1.3774652E7,3.806976E6,2.9414535E6,6.084851E7,1.8341604E7,5.064256E6,1.4868992E7,8.154112E7,4.17792E7,0E0,0E0,0E0,9.715352E6,1.6839104E7,0E0,4.022368E6,3.7820475E5,1.3344404E6,0E0,4.717491E7,4.2469945E6,1.8069768E6,1.5734344E7,0E0,0E0,0E0,0E0,6.53824E6,3.1709184E7,0E0,0E0,0E0,0E0,0E0,0E0,0E0,0E0,0E0,0E0,0E0,0E0,0E0,0E0,0E0,0E0,0E0,0E0,0E0,0E0,0E0,0E0,0E0,0E0],"parents":[2147483647,0,0,1,1,2,2,3,3,4,4,5,5,6,6,7,7,8,8,9,9,10,10,11,11,12,12,13,13,18,18,19,19,20,20,21,21,22,22,23,23,24,24,25,25,26,26,27,27,28,28,32,32,33,33,35,35,36,36,37,37,39,39,40,40,41,41,42,42,47,47,48,48],"right_children":[2,4,6,8,10,12,14,16,18,20,22,24,26,28,-1,-1,-1,-1,30,32,34,36,38,40,42,44,46,48,50,-1,-1,-1,52,54,-1,56,58,60,-1,62,64,66,68,-1,-1,-1,-1,70,72,-1,-1,-1,-1,-1,-1,-1,-1,-1,-1,-1,-1,-1,-1,-1,-1,-1,-1,-1,-1,-1,-1,-1,-1],"split_conditions":[6.820709E2,2.5586652E2,1.1520059E3,5.3966908E1,1.5457267E1,8.282876E2,1.3011057E3,4.8247066E1,2.55822E1,5.446551E2,4.074542E2,6.9475464E1,2.679615E1,3.879851E1,1.3828564E2,-3.1407682E1,-4.1005753E1,-5.4393326E1,1.0989092E2,4.798641E0,6.432589E2,9.2130486E1,2.1724178E1,7.7473456E2,7.129428E1,1.0815833E3,7.00282E1,1.1695421E3,6.313261E1,-4.8364223E1,-3.757645E0,1.6546272E1,1.6168663E1,5.7691166E1,-1.8493507E1,1.4807955E1,2.8600467E2,1.4571111E1,-1.2312615E1,7.9855035E2,8.7826196E2,6.509814E2,7.473025E1,8.728834E1,2.3075596E1,6.036596E1,9.660847E0,1.0382672E3,1.4084669E3,9.092885E1,1.1927138E1,-6.097659E0,8.731441E0,4.1368544E-1,1.2276076E1,-1.0266111E1,-2.1737041E1,-8.268841E0,-5.550098E-1,-6.1460743E0,3.870791E0,3.2234966E1,4.71545E1,2.2502708E0,-2.1038456E1,1.3271215E0,-1.3018246E1,3.0395247E1,7.092672E0,8.72241E1,2.2758657E1,1.1327684E2,6.5050476E1],"split_indices":[45,20,20,37,37,0,9,6,38,46,20,32,32,32,0,0,0,0,32,57,20,32,6,23,32,0,32,0,32,0,0,0,31,32,0,8,0,6,0,20,2,0,32,0,0,0,0,9,11,0,0,0,0,0,0,0,0,0,0,0,0,0,0,0,0,0,0,0,0,0,0,0,0],"split_type":[0,0,0,0,0,0,0,0,0,0,0,0,0,0,0,0,0,0,0,0,0,0,0,0,0,0,0,0,0,0,0,0,0,0,0,0,0,0,0,0,0,0,0,0,0,0,0,0,0,0,0,0,0,0,0,0,0,0,0,0,0,0,0,0,0,0,0,0,0,0,0,0,0],"sum_hessian":[2.099E3,1.363E3,7.36E2,1.169E3,1.94E2,3E2,4.36E2,9.8E1,1.071E3,1.12E2,8.2E1,1.36E2,1.64E2,3.36E2,1E2,3.8E1,6E1,1.011E3,6E1,5.4E1,5.8E1,7.6E1,6E0,1.2E2,1.6E1,1.3E1,1.51E2,2.14E2,1.22E2,5.8E1,2E0,4E0,5E1,5.7E1,1E0,7.3E1,3E0,4E0,2E0,1.18E2,2E0,3E0,1.3E1,1.2E1,1E0,1.5E2,1E0,3.4E1,1.8E2,1.21E2,1E0,4.6E1,4E0,1.7E1,4E1,6E0,6.7E1,2E0,1E0,1E0,3E0,7.6E1,4.2E1,1E0,1E0,1E0,2E0,4E0,9E0,3.3E1,1E0,1.74E2,6E0],"tree_param":{"num_deleted":"0","num_feature":"64","num_nodes":"73","size_leaf_vector":"1"}},{"base_weights":[-3.837895E1,-4.5511753E3,8.484449E3,-6.239426E2,-5.2142046E3,4.6039155E3,1.0771585E4,-1.8768004E3,3.0468893E2,-3.9478586E3,-5.3551716E1,3.1976653E3,6.00727E3,9.30811E3,1.2174714E4,1.6519249E3,-1.9830123E3,-2.4225899E2,1.1184872E3,-4.0021377E3,-4.969297E0,3.2732935E3,-1.2462828E3,6.800673E3,4.598256E3,1.00504795E4,7.991369E3,1.1158063E4,1.3545255E4,2.1977377E1,2.8014965E0,-2.023947E3,-2.3041682E2,1.8367583E3,-3.6458945E2,1.2983629E3,-1.0947993E3,-3.5463398E1,-4.356627E3,2.7831348E3,4.395907E3,2.2390184E0,-2.0933262E1,8.571308E1,6.411113E3,4.9107974E3,7.407135E2,8.608236E3,1.0780211E2,8.352156E3,1.788847E3,1.1548512E2,8.316029E3,4.1262817E3,1.3708717E2,-1.3689963E1,-2.1305943E1,-2.9040184E0,-5.522339E-1,9.9886227E-1,2.3824202E1,-1.4991307E1,-1.352226E0,3.7520103E0,1.7310894E1,6.212639E0,-1.8739082E1,-4.4167206E1,-3.4545262E0,2.8937094E1,1.9193319E0,4.680458E1,7.3597054E0,4.161272E1,6.627323E1,4.9757603E1,9.612544E0,-2.7445456E1,3.979068E1,8.688222E1,2.2644863E1,8.468242E1,2.511175E1,-2.723375E1,3.2359665E1,8.788968E1,-3.3490453E0,5.9269382E1,2.6248436E0],"categories":[],"categories_nodes":[],"categories_segments":[],"categories_sizes":[],"default_left":[0,0,0,0,0,0,0,0,0,0,0,0,0,0,0,0,0,0,0,0,0,0,0,0,0,0,0,0,0,0,0,0,0,0,0,0,0,0,0,0,0,0,0,0,0,0,0,0,0,0,0,0,0,0,0,0,0,0,0,0,0,0,0,0,0,0,0,0,0,0,0,0,0,0,0,0,0,0,0,0,0,0,0,0,0,0,0,0,0],"id":21,"left_children":[1,3,5,7,9,11,13,15,17,19,-1,21,23,25,27,29,31,33,35,37,-1,39,41,43,45,47,49,51,53,-1,-1,55,57,59,61,63,65,-1,67,69,71,-1,-1,-1,73,75,77,79,-1,81,83,-1,85,87,-1,-1,-1,-1,-1,-1,-1,-1,-1,-1,-1,-1,-1,-1,-1,-1,-1,-1,-1,-1,-1,-1,-1,-1,-1,-1,-1,-1,-1,-1,-1,-1,-1,-1,-1],"loss_changes":[7.9769895E10,3.527594E9,6.3228805E9,2.297702E8,1.8593382E8,5.0968013E8,8.127775E8,3.4758336E7,5.101296E7,2.048896E7,0E0,4.978739E7,1.1741133E8,1.396224E8,1.6515482E8,1.630503E6,5.41648E6,1.8218234E7,1.9734808E7,3.615744E6,0E0,6.150029E7,4.20463E6,2.299136E6,5.785037E7,5.4544384E7,1.7750938E8,5.487821E7,